{"learner":{"attributes":{"scikit_learn":"{\"_estimator_type\": \"classifier\"}"},"feature_names":["loan_amnt","term","annual_inc","dti","fico_score","inq_last_6mths","delinq_2yrs","open_acc","pub_rec","revol_bal","revol_util","total_acc","emp_length","loan_to_income","fico_dti_ratio","credit_age_proxy","delinq_pub_sum","log_annual_inc","log_revol_bal","home_ownership","purpose","verification_status","addr_state"],"feature_types":["float","float","float","float","float","float","float","float","float","float","float","float","float","float","float","float","float","float","float","float","float","float","float"],"gradient_booster":{"model":{"cats":{"enc":[],"feature_segments":[],"sorted_idx":[]},"gbtree_model_param":{"num_parallel_tree":"1","num_trees":"300"},"iteration_indptr":[0,1,2,3,4,5,6,7,8,9,10,11,12,13,14,15,16,17,18,19,20,21,22,23,24,25,26,27,28,29,30,31,32,33,34,35,36,37,38,39,40,41,42,43,44,45,46,47,48,49,50,51,52,53,54,55,56,57,58,59,60,61,62,63,64,65,66,67,68,69,70,71,72,73,74,75,76,77,78,79,80,81,82,83,84,85,86,87,88,89,90,91,92,93,94,95,96,97,98,99,100,101,102,103,104,105,106,107,108,109,110,111,112,113,114,115,116,117,118,119,120,121,122,123,124,125,126,127,128,129,130,131,132,133,134,135,136,137,138,139,140,141,142,143,144,145,146,147,148,149,150,151,152,153,154,155,156,157,158,159,160,161,162,163,164,165,166,167,168,169,170,171,172,173,174,175,176,177,178,179,180,181,182,183,184,185,186,187,188,189,190,191,192,193,194,195,196,197,198,199,200,201,202,203,204,205,206,207,208,209,210,211,212,213,214,215,216,217,218,219,220,221,222,223,224,225,226,227,228,229,230,231,232,233,234,235,236,237,238,239,240,241,242,243,244,245,246,247,248,249,250,251,252,253,254,255,256,257,258,259,260,261,262,263,264,265,266,267,268,269,270,271,272,273,274,275,276,277,278,279,280,281,282,283,284,285,286,287,288,289,290,291,292,293,294,295,296,297,298,299,300],"tree_info":[0,0,0,0,0,0,0,0,0,0,0,0,0,0,0,0,0,0,0,0,0,0,0,0,0,0,0,0,0,0,0,0,0,0,0,0,0,0,0,0,0,0,0,0,0,0,0,0,0,0,0,0,0,0,0,0,0,0,0,0,0,0,0,0,0,0,0,0,0,0,0,0,0,0,0,0,0,0,0,0,0,0,0,0,0,0,0,0,0,0,0,0,0,0,0,0,0,0,0,0,0,0,0,0,0,0,0,0,0,0,0,0,0,0,0,0,0,0,0,0,0,0,0,0,0,0,0,0,0,0,0,0,0,0,0,0,0,0,0,0,0,0,0,0,0,0,0,0,0,0,0,0,0,0,0,0,0,0,0,0,0,0,0,0,0,0,0,0,0,0,0,0,0,0,0,0,0,0,0,0,0,0,0,0,0,0,0,0,0,0,0,0,0,0,0,0,0,0,0,0,0,0,0,0,0,0,0,0,0,0,0,0,0,0,0,0,0,0,0,0,0,0,0,0,0,0,0,0,0,0,0,0,0,0,0,0,0,0,0,0,0,0,0,0,0,0,0,0,0,0,0,0,0,0,0,0,0,0,0,0,0,0,0,0,0,0,0,0,0,0,0,0,0,0,0,0,0,0,0,0,0,0,0,0,0,0,0,0,0,0,0,0,0,0,0,0,0,0,0,0],"trees":[{"base_weights":[-1.2452925E-2,-2.698967E-1,5.99661E-1,-6.228326E-1,-1.9198056E-2,1.49E-1,8.260204E-1,-3.635884E-1,-1.0939173E0,2.0766704E-1,-3.0067843E-1,-2.506329E-1,4.0487805E-1,9.906087E-1,3.6431924E-1,-3.4832217E-2,-7.2844825E-3,-6.195531E-2,-4.912281E-3,-1.1785715E-2,1.5327103E-2,-2.7818576E-2,6.4028776E-3,-3.7014928E-2,5.0526317E-3,-1.2830189E-2,2.8832486E-2,5.4015446E-2,7.8688525E-3,-1.20547945E-2,3.3194445E-2],"categories":[],"categories_nodes":[],"categories_segments":[],"categories_sizes":[],"default_left":[0,0,0,0,0,0,0,0,0,0,0,0,0,0,0,0,0,0,0,0,0,0,0,0,0,0,0,0,0,0,0],"id":0,"left_children":[1,3,5,7,9,11,13,15,17,19,21,23,25,27,29,-1,-1,-1,-1,-1,-1,-1,-1,-1,-1,-1,-1,-1,-1,-1,-1],"loss_changes":[1.5704404E2,6.2015076E1,2.9872757E1,3.5025696E1,2.6349339E1,1.034263E1,1.4397781E1,1.3566757E1,1.4598114E1,1.0085668E1,2.031245E1,6.940961E0,7.167842E0,1.0450226E1,9.859974E0,0E0,0E0,0E0,0E0,0E0,0E0,0E0,0E0,0E0,0E0,0E0,0E0,0E0,0E0,0E0,0E0],"parents":[2147483647,0,0,1,1,2,2,3,3,4,4,5,5,6,6,7,7,8,8,9,9,10,10,11,11,12,12,13,13,14,14],"right_children":[2,4,6,8,10,12,14,16,18,20,22,24,26,28,30,-1,-1,-1,-1,-1,-1,-1,-1,-1,-1,-1,-1,-1,-1,-1,-1],"split_conditions":[6E1,1.573E1,2.3703265E-1,7.02E2,6.92E2,4.7E1,2.0545E4,1.2777635E-1,3.0624235E-1,5.6E3,3E0,1.5999871E-1,1.097E1,7.37E2,1.1E1,-3.4832217E-2,-7.2844825E-3,-6.195531E-2,-4.912281E-3,-1.1785715E-2,1.5327103E-2,-2.7818576E-2,6.4028776E-3,-3.7014928E-2,5.0526317E-3,-1.2830189E-2,2.8832486E-2,5.4015446E-2,7.8688525E-3,-1.20547945E-2,3.3194445E-2],"split_indices":[1,3,13,4,4,10,9,13,13,0,19,13,3,4,7,0,0,0,0,0,0,0,0,0,0,0,0,0,0,0,0],"split_type":[0,0,0,0,0,0,0,0,0,0,0,0,0,0,0,0,0,0,0,0,0,0,0,0,0,0,0,0,0,0,0],"sum_hessian":[9.9475E2,7.0075E2,2.94E2,2.9025E2,4.105E2,9.9E1,1.95E2,1.885E2,1.0175E2,2.2725E2,1.8325E2,3.85E1,6.05E1,1.4275E2,5.225E1,7.35E1,1.15E2,8.85E1,1.325E1,4.1E1,1.8625E2,1.1475E2,6.85E1,1.575E1,2.275E1,1.225E1,4.825E1,1.285E2,1.425E1,1.725E1,3.5E1],"tree_param":{"num_deleted":"0","num_feature":"23","num_nodes":"31","size_leaf_vector":"1"}},{"base_weights":[-4.5562037E-3,-2.683104E-1,6.0207695E-1,-5.752934E-1,-5.1662054E-2,2.032969E-1,8.0728877E-1,6.862744E-2,-7.4355763E-1,3.0935648E-1,-1.6245829E-1,-2.0269306E-1,4.6700984E-1,6.367482E-1,1.1316854E0,-1.5293079E-2,2.330312E-2,-4.3817442E-2,-3.0098346E-3,-1.2959047E-2,2.2258066E-2,-2.466786E-2,-1.0825226E-3,-3.4964297E-2,1.5979822E-3,-1.1333783E-2,3.2822702E-2,3.7842948E-2,7.294969E-3,4.194558E-2,7.4711256E-2],"categories":[],"categories_nodes":[],"categories_segments":[],"categories_sizes":[],"default_left":[0,0,0,0,0,0,0,0,0,0,0,0,0,0,0,0,0,0,0,0,0,0,0,0,0,0,0,0,0,0,0],"id":1,"left_children":[1,3,5,7,9,11,13,15,17,19,21,23,25,27,29,-1,-1,-1,-1,-1,-1,-1,-1,-1,-1,-1,-1,-1,-1,-1,-1],"loss_changes":[1.5928798E2,4.6070805E1,2.4418434E1,3.1202904E1,1.6363974E1,1.1254056E1,1.0092194E1,9.1227665E0,2.0512688E1,7.5456514E0,1.4531808E1,4.9242697E0,8.535195E0,7.622017E0,5.6203156E0,0E0,0E0,0E0,0E0,0E0,0E0,0E0,0E0,0E0,0E0,0E0,0E0,0E0,0E0,0E0,0E0],"parents":[2147483647,0,0,1,1,2,2,3,3,4,4,5,5,6,6,7,7,8,8,9,9,10,10,11,11,12,12,13,13,14,14],"right_children":[2,4,6,8,10,12,14,16,18,20,22,24,26,28,30,-1,-1,-1,-1,-1,-1,-1,-1,-1,-1,-1,-1,-1,-1,-1,-1],"split_conditions":[6E1,1.573E1,2.3703265E-1,1.375E0,1.4090909E0,4.7E1,1E0,1.6666389E-1,2E0,1.805E1,1E0,1.4583273E-1,1.097E1,2.5238094E0,3E0,-1.5293079E-2,2.330312E-2,-4.3817442E-2,-3.0098346E-3,-1.2959047E-2,2.2258066E-2,-2.466786E-2,-1.0825226E-3,-3.4964297E-2,1.5979822E-3,-1.1333783E-2,3.2822702E-2,3.7842948E-2,7.294969E-3,4.194558E-2,7.4711256E-2],"split_indices":[1,3,13,15,15,10,16,13,5,3,21,13,3,15,19,0,0,0,0,0,0,0,0,0,0,0,0,0,0,0,0],"split_type":[0,0,0,0,0,0,0,0,0,0,0,0,0,0,0,0,0,0,0,0,0,0,0,0,0,0,0,0,0,0,0],"sum_hessian":[9.937361E2,6.93107E2,3.0062906E2,2.8589166E2,4.0721533E2,1.0298342E2,1.9764565E2,5.9229076E1,2.2666258E2,9.499356E1,3.1222177E2,4.0494198E1,6.248922E1,1.3168686E2,6.595879E1,3.0483932E1,2.8745146E1,1.8942468E2,3.7237907E1,1.799865E1,7.699491E1,9.224105E1,2.1998074E2,1.249572E1,2.7998478E1,1.32494545E1,4.9239765E1,1.0519898E2,2.6487871E1,3.8476448E1,2.7482344E1],"tree_param":{"num_deleted":"0","num_feature":"23","num_nodes":"31","size_leaf_vector":"1"}},{"base_weights":[4.180904E-2,-2.1650045E-1,6.4159733E-1,-4.8402596E-2,-7.6201814E-1,7.712273E-1,1.2395818E-2,1.7069787E-1,-3.3345848E-1,-4.795761E-2,-9.344738E-1,4.9612615E-1,9.6910036E-1,-3.612114E-2,2.0901579E-1,1.854024E-2,-2.2792586E-3,7.6820785E-3,-2.3196345E-2,-1.857633E-2,1.0074013E-2,-3.2142457E-2,-7.093064E-2,3.2383107E-2,-2.1752664E-3,5.4228034E-2,2.9243195E-2,4.1967668E-2,-3.914567E-3],"categories":[],"categories_nodes":[],"categories_segments":[],"categories_sizes":[],"default_left":[0,0,0,0,0,0,0,0,0,0,0,0,0,0,0,0,0,0,0,0,0,0,0,0,0,0,0,0,0],"id":2,"left_children":[1,3,5,7,9,11,13,15,17,19,21,23,25,-1,27,-1,-1,-1,-1,-1,-1,-1,-1,-1,-1,-1,-1,-1,-1],"loss_changes":[1.5533063E2,6.412642E1,2.4529404E1,3.3597534E1,2.0153687E1,1.2987503E1,7.7148075E0,1.3204652E1,1.4961214E1,2.773861E0,1.7602104E1,8.829914E0,5.59671E0,0E0,7.832093E0,0E0,0E0,0E0,0E0,0E0,0E0,0E0,0E0,0E0,0E0,0E0,0E0,0E0,0E0],"parents":[2147483647,0,0,1,1,2,2,3,3,4,4,5,5,6,6,7,7,8,8,9,9,10,10,11,11,12,12,14,14],"right_children":[2,4,6,8,10,12,14,16,18,20,22,24,26,-1,28,-1,-1,-1,-1,-1,-1,-1,-1,-1,-1,-1,-1,-1,-1],"split_conditions":[6E1,7.12E2,7.22E2,3.8529575E1,1.4E0,2.6153445E-1,1.8181488E-1,6.82E2,1.375E0,7.27E2,4.825313E1,7.02E2,2.4615386E0,-3.612114E-2,2.27E1,1.854024E-2,-2.2792586E-3,7.6820785E-3,-2.3196345E-2,-1.857633E-2,1.0074013E-2,-3.2142457E-2,-7.093064E-2,3.2383107E-2,-2.1752664E-3,5.4228034E-2,2.9243195E-2,4.1967668E-2,-3.914567E-3],"split_indices":[1,4,4,14,15,13,13,4,15,4,14,4,15,0,10,0,0,0,0,0,0,0,0,0,0,0,0,0,0],"split_type":[0,0,0,0,0,0,0,0,0,0,0,0,0,0,0,0,0,0,0,0,0,0,0,0,0,0,0,0,0],"sum_hessian":[1.0004084E3,6.9958984E2,3.0081848E2,5.357683E2,1.6382158E2,2.491112E2,5.170729E1,3.0295813E2,2.3281015E2,3.222995E1,1.3159163E2,1.0589667E2,1.4321454E2,1.024317E1,4.1464123E1,1.5723285E2,1.4572528E2,4.8984364E1,1.8382579E2,1.3991596E1,1.8238352E1,8.3705414E1,4.788622E1,8.266759E1,2.3229084E1,1.0852165E2,3.4692883E1,1.2489466E1,2.8974655E1],"tree_param":{"num_deleted":"0","num_feature":"23","num_nodes":"29","size_leaf_vector":"1"}},{"base_weights":[-1.4237585E-2,-2.4318728E-1,5.1467156E-1,-3.6617687E-1,1.632735E-1,1.5721728E-1,6.99552E-1,-4.7864014E-1,1.0942999E-1,5.981404E-1,-2.3076007E-2,-1.7597073E-1,5.295319E-1,8.5973644E-1,3.2964143E-1,-3.5112806E-2,-1.1270336E-2,-1.5060025E-2,1.5011256E-2,-2.609863E-3,3.890964E-2,-1.3489244E-2,1.7761108E-2,-2.1975152E-2,8.216179E-3,1.013643E-2,5.468284E-2,2.8115705E-2,5.4616686E-2,-1.501431E-2,3.0814607E-2],"categories":[],"categories_nodes":[],"categories_segments":[],"categories_sizes":[],"default_left":[0,0,0,0,0,0,0,0,0,0,0,0,0,0,0,0,0,0,0,0,0,0,0,0,0,0,0,0,0,0,0],"id":3,"left_children":[1,3,5,7,9,11,13,15,17,19,21,23,25,27,29,-1,-1,-1,-1,-1,-1,-1,-1,-1,-1,-1,-1,-1,-1,-1,-1],"loss_changes":[1.21607864E2,3.5128853E1,1.9850174E1,2.8905647E1,1.3310215E1,1.3138737E1,1.1415863E1,2.4442177E1,8.212759E0,5.874813E0,1.0835457E1,5.117798E0,8.852149E0,8.792656E0,1.1426482E1,0E0,0E0,0E0,0E0,0E0,0E0,0E0,0E0,0E0,0E0,0E0,0E0,0E0,0E0,0E0,0E0],"parents":[2147483647,0,0,1,1,2,2,3,3,4,4,5,5,6,6,7,7,8,8,9,9,10,10,11,11,12,12,13,13,14,14],"right_children":[2,4,6,8,10,12,14,16,18,20,22,24,26,28,30,-1,-1,-1,-1,-1,-1,-1,-1,-1,-1,-1,-1,-1,-1,-1,-1],"split_conditions":[6E1,2.758573E-1,2.3703265E-1,2E0,7.544E3,5.52E1,1.9435E4,1.739E1,1E0,6E0,2.453E1,2E0,3E0,1.856E1,1.1E1,-3.5112806E-2,-1.1270336E-2,-1.5060025E-2,1.5011256E-2,-2.609863E-3,3.890964E-2,-1.3489244E-2,1.7761108E-2,-2.1975152E-2,8.216179E-3,1.013643E-2,5.468284E-2,2.8115705E-2,5.4616686E-2,-1.501431E-2,3.0814607E-2],"split_indices":[1,13,13,5,9,10,9,3,21,7,3,19,19,3,7,0,0,0,0,0,0,0,0,0,0,0,0,0,0,0,0],"split_type":[0,0,0,0,0,0,0,0,0,0,0,0,0,0,0,0,0,0,0,0,0,0,0,0,0,0,0,0,0,0,0],"sum_hessian":[1.00243756E3,7.0010944E2,3.0232812E2,5.377413E2,1.6236816E2,1.0387801E2,1.9845012E2,4.3506784E2,1.02673416E2,4.8204514E1,1.1416366E2,5.4956062E1,4.8921947E1,1.3736966E2,6.1080463E1,2.2989375E2,2.0517407E2,3.2222076E1,7.045134E1,1.0485665E1,3.771885E1,6.943348E1,4.4730175E1,3.0972511E1,2.3983551E1,3.194976E1,1.6972189E1,6.1972637E1,7.539702E1,1.8978323E1,4.210214E1],"tree_param":{"num_deleted":"0","num_feature":"23","num_nodes":"31","size_leaf_vector":"1"}},{"base_weights":[2.5162338E-3,-2.407489E-1,3.7080598E-1,-8.770968E-2,-6.9947547E-1,4.9599257E-1,-5.5395614E-2,2.7181951E-2,-5.43126E-1,-7.5736836E-2,-9.35297E-1,3.855832E-1,8.00523E-1,-4.9546227E-1,1.9757044E-1,-8.807558E-3,1.3443527E-2,-5.0098598E-2,-1.7459925E-2,-3.2738235E-2,1.3851647E-2,-5.4285407E-2,-6.124036E-3,3.537668E-2,1.1049388E-2,4.3851893E-2,1.5687272E-2,-4.0274847E-2,-3.5844333E-3,2.3168094E-2,-1.5623184E-2],"categories":[],"categories_nodes":[],"categories_segments":[],"categories_sizes":[],"default_left":[0,0,0,0,0,0,0,0,0,0,0,0,0,0,0,0,0,0,0,0,0,0,0,0,0,0,0,0,0,0,0],"id":4,"left_children":[1,3,5,7,9,11,13,15,17,19,21,23,25,27,29,-1,-1,-1,-1,-1,-1,-1,-1,-1,-1,-1,-1,-1,-1,-1,-1],"loss_changes":[8.95038E1,4.2078762E1,2.1279636E1,2.3729477E1,2.1911484E1,9.912735E0,1.0254017E1,1.7842367E1,7.64184E0,8.878721E0,1.3040428E1,1.1825962E1,2.609932E0,4.2733383E0,8.067498E0,0E0,0E0,0E0,0E0,0E0,0E0,0E0,0E0,0E0,0E0,0E0,0E0,0E0,0E0,0E0,0E0],"parents":[2147483647,0,0,1,1,2,2,3,3,4,4,5,5,6,6,7,7,8,8,9,9,10,10,11,11,12,12,13,13,14,14],"right_children":[2,4,6,8,10,12,14,16,18,20,22,24,26,28,30,-1,-1,-1,-1,-1,-1,-1,-1,-1,-1,-1,-1,-1,-1,-1,-1],"split_conditions":[2.4793184E-1,7.12E2,7.12E2,2.6E0,1.5454545E0,2.654E1,3.0833012E-1,3E0,1E0,2E0,2E0,8.091E3,2E0,2.6E1,2.1666667E0,-8.807558E-3,1.3443527E-2,-5.0098598E-2,-1.7459925E-2,-3.2738235E-2,1.3851647E-2,-5.4285407E-2,-6.124036E-3,3.537668E-2,1.1049388E-2,4.3851893E-2,1.5687272E-2,-4.0274847E-2,-3.5844333E-3,2.3168094E-2,-1.5623184E-2],"split_indices":[13,4,4,15,15,3,13,19,21,19,5,9,5,11,15,0,0,0,0,0,0,0,0,0,0,0,0,0,0,0,0],"split_type":[0,0,0,0,0,0,0,0,0,0,0,0,0,0,0,0,0,0,0,0,0,0,0,0,0,0,0,0,0,0,0],"sum_hessian":[9.968733E2,6.0038074E2,3.9649255E2,4.5124628E2,1.4913445E2,3.065281E2,8.9964455E1,3.609158E2,9.033047E1,4.1394047E1,1.077404E2,2.2686966E2,7.9658455E1,3.26326E1,5.733186E1,1.9593375E2,1.6498206E2,2.5444536E1,6.488593E1,1.5454616E1,2.5939432E1,9.052926E1,1.7211147E1,7.542718E1,1.5144247E2,6.7967705E1,1.1690751E1,1.8188826E1,1.4443772E1,3.787949E1,1.9452368E1],"tree_param":{"num_deleted":"0","num_feature":"23","num_nodes":"31","size_leaf_vector":"1"}},{"base_weights":[-1.7719286E-2,-2.2883753E-1,4.6799085E-1,1.6371664E-2,-4.453552E-1,8.040602E-1,2.7920234E-1,4.2979577E-1,-9.821174E-2,-7.192948E-1,-2.3323329E-1,1.036189E0,4.2998335E-1,3.9481068E-1,-4.174141E-1,6.2206998E-3,3.392095E-2,-2.2859069E-2,2.1565447E-3,-4.173292E-2,-1.6146973E-2,-2.761676E-2,-3.6461984E-3,2.66635E-2,5.583151E-2,3.2227572E-2,-9.731321E-3,5.1848865E-3,3.5222914E-2,-3.6264125E-2,-6.971234E-3],"categories":[],"categories_nodes":[],"categories_segments":[],"categories_sizes":[],"default_left":[0,0,0,0,0,0,0,0,0,0,0,0,0,0,0,0,0,0,0,0,0,0,0,0,0,0,0,0,0,0,0],"id":5,"left_children":[1,3,5,7,9,11,13,15,17,19,21,23,25,27,29,-1,-1,-1,-1,-1,-1,-1,-1,-1,-1,-1,-1,-1,-1,-1,-1],"loss_changes":[1.0245084E2,3.7037243E1,1.8868431E1,1.5586327E1,2.1250298E1,8.797653E0,1.5907393E1,5.2587643E0,1.3100729E1,6.9711533E0,1.0657212E1,1.9036942E0,5.97108E0,1.5018362E1,2.2250352E0,0E0,0E0,0E0,0E0,0E0,0E0,0E0,0E0,0E0,0E0,0E0,0E0,0E0,0E0,0E0,0E0],"parents":[2147483647,0,0,1,1,2,2,3,3,4,4,5,5,6,6,7,7,8,8,9,9,10,10,11,11,12,12,13,13,14,14],"right_children":[2,4,6,8,10,12,14,16,18,20,22,24,26,28,30,-1,-1,-1,-1,-1,-1,-1,-1,-1,-1,-1,-1,-1,-1,-1,-1],"split_conditions":[6E1,3.5309017E1,2.9107426E1,1.4090909E0,2E0,9.9105625E0,1.24E5,4.2E4,1E0,1E0,1E0,2.85E1,2.3636363E0,2E0,1.5E5,6.2206998E-3,3.392095E-2,-2.2859069E-2,2.1565447E-3,-4.173292E-2,-1.6146973E-2,-2.761676E-2,-3.6461984E-3,2.66635E-2,5.583151E-2,3.2227572E-2,-9.731321E-3,5.1848865E-3,3.5222914E-2,-3.6264125E-2,-6.971234E-3],"split_indices":[1,14,14,15,19,18,2,2,21,6,21,10,15,19,2,0,0,0,0,0,0,0,0,0,0,0,0,0,0,0,0],"split_type":[0,0,0,0,0,0,0,0,0,0,0,0,0,0,0,0,0,0,0,0,0,0,0,0,0,0,0,0,0,0,0],"sum_hessian":[9.972973E2,6.95658E2,3.0163925E2,3.2643195E2,3.6922607E2,1.0713519E2,1.9450404E2,7.043171E1,2.5600024E2,1.5988464E2,2.0934143E2,6.4853714E1,4.228148E1,1.6731393E2,2.7190117E1,3.2461796E1,3.7969917E1,7.189092E1,1.8410933E2,1.2278778E2,3.7096863E1,6.897494E1,1.403665E2,1.0166322E1,5.468739E1,3.1565992E1,1.0715486E1,8.7092445E1,8.022149E1,1.1967531E1,1.5222585E1],"tree_param":{"num_deleted":"0","num_feature":"23","num_nodes":"31","size_leaf_vector":"1"}},{"base_weights":[-6.00995E-3,-2.343235E-1,5.2701914E-1,-4.258793E-2,-6.3189167E-1,-2.190832E-2,5.9747607E-1,1.0024462E-1,-2.7843672E-1,-7.548637E-1,-9.291228E-2,7.696839E-1,2.8067008E-1,1.8906648E-3,5.096705E-2,1.3049299E-2,-1.8144337E-2,-9.551393E-3,-4.2986657E-2,-1.743224E-2,1.9652782E-2,4.1489035E-2,4.2940523E-3,2.9835058E-2,-4.9826247E-3],"categories":[],"categories_nodes":[],"categories_segments":[],"categories_sizes":[],"default_left":[0,0,0,0,0,0,0,0,0,0,0,0,0,0,0,0,0,0,0,0,0,0,0,0,0],"id":6,"left_children":[1,3,5,7,9,-1,11,13,15,17,19,21,23,-1,-1,-1,-1,-1,-1,-1,-1,-1,-1,-1,-1],"loss_changes":[1.2055442E2,5.279422E1,2.0475563E1,1.585572E1,1.47910385E1,0E0,1.4808716E1,1.6655134E1,8.193035E0,1.0570038E1,5.499269E0,7.188301E0,1.2061077E1,0E0,0E0,0E0,0E0,0E0,0E0,0E0,0E0,0E0,0E0,0E0,0E0],"parents":[2147483647,0,0,1,1,2,2,3,3,4,4,6,6,7,7,8,8,9,9,10,10,11,11,12,12],"right_children":[2,4,6,8,10,-1,12,14,16,18,20,22,24,-1,-1,-1,-1,-1,-1,-1,-1,-1,-1,-1,-1],"split_conditions":[6E1,7.02E2,1.3157548E-1,2.0833333E0,3.0833012E-1,-2.190832E-2,9.815148E0,3E0,3.7E4,1.3076923E0,5.51E4,7.47E2,3.21949E1,1.8906648E-3,5.096705E-2,1.3049299E-2,-1.8144337E-2,-9.551393E-3,-4.2986657E-2,-1.743224E-2,1.9652782E-2,4.1489035E-2,4.2940523E-3,2.9835058E-2,-4.9826247E-3],"split_indices":[1,4,13,15,13,0,18,5,2,15,2,4,14,0,0,0,0,0,0,0,0,0,0,0,0],"split_type":[0,0,0,0,0,0,0,0,0,0,0,0,0,0,0,0,0,0,0,0,0,0,0,0,0],"sum_hessian":[9.888308E2,6.9282117E2,2.9600964E2,4.683218E2,2.2449934E2,1.9686548E1,2.7632312E2,2.9177234E2,1.7654948E2,1.8231647E2,4.218288E1,1.778844E2,9.843871E1,2.742906E2,1.7481752E1,2.345522E1,1.5309425E2,2.9183735E1,1.5313272E2,2.7958527E1,1.4224356E1,1.6318315E2,1.4701251E1,5.3596455E1,4.484226E1],"tree_param":{"num_deleted":"0","num_feature":"23","num_nodes":"25","size_leaf_vector":"1"}},{"base_weights":[1.2869833E-2,-2.0993336E-1,3.4496024E-1,2.245348E-2,-4.792804E-1,4.6136168E-1,-4.1444886E-2,-1.7806014E-1,2.9243153E-1,-7.07007E-1,-2.0595874E-1,6.8019944E-1,3.3288345E-1,-3.9857853E-2,6.0975254E-2,-1.2091627E-2,3.5067637E-2,-2.0753782E-2,1.9445887E-2,-2.2095291E-2,-5.1102538E-2,-1.3824396E-2,2.7295593E-2,1.20295035E-2,3.91962E-2,3.1040853E-2,1.0705772E-2,3.569005E-2,-5.650014E-3],"categories":[],"categories_nodes":[],"categories_segments":[],"categories_sizes":[],"default_left":[0,0,0,0,0,0,0,0,0,0,0,0,0,0,0,0,0,0,0,0,0,0,0,0,0,0,0,0,0],"id":7,"left_children":[1,3,5,7,9,11,13,15,17,19,21,23,25,-1,27,-1,-1,-1,-1,-1,-1,-1,-1,-1,-1,-1,-1,-1,-1],"loss_changes":[7.431352E1,3.7664185E1,1.8203842E1,1.7565252E1,1.709954E1,8.395721E0,7.405555E0,1.0550852E1,9.604984E0,1.2040588E1,6.922433E0,4.8855934E0,6.545786E0,0E0,9.644877E0,0E0,0E0,0E0,0E0,0E0,0E0,0E0,0E0,0E0,0E0,0E0,0E0,0E0,0E0],"parents":[2147483647,0,0,1,1,2,2,3,3,4,4,5,5,6,6,7,7,8,8,9,9,10,10,11,11,12,12,14,14],"right_children":[2,4,6,8,10,12,14,16,18,20,22,24,26,-1,28,-1,-1,-1,-1,-1,-1,-1,-1,-1,-1,-1,-1,-1,-1],"split_conditions":[2.4389946E-1,6.92E2,7.12E2,1.2E1,2E0,2.7184088E1,1.1375E4,4.4E1,4.5E3,4.251353E1,2E1,2E0,7.417E3,-3.9857853E-2,5.532E3,-1.2091627E-2,3.5067637E-2,-2.0753782E-2,1.9445887E-2,-2.2095291E-2,-5.1102538E-2,-1.3824396E-2,2.7295593E-2,1.20295035E-2,3.91962E-2,3.1040853E-2,1.0705772E-2,3.569005E-2,-5.650014E-3],"split_indices":[13,4,4,7,19,14,0,22,0,14,7,20,9,0,9,0,0,0,0,0,0,0,0,0,0,0,0,0,0],"split_type":[0,0,0,0,0,0,0,0,0,0,0,0,0,0,0,0,0,0,0,0,0,0,0,0,0,0,0,0,0],"sum_hessian":[1.0022004E3,5.9983264E2,4.0236774E2,3.2230243E2,2.775302E2,3.0926804E2,9.309969E1,1.8492676E2,1.3737567E2,1.5032751E2,1.2720272E2,1.12527176E2,1.9674088E2,1.0418611E1,8.2681076E1,1.7320515E2,1.17216015E1,1.5965637E1,1.21410034E2,8.311145E1,6.721606E1,1.1699342E2,1.0209291E1,2.2299623E1,9.022755E1,5.59734E1,1.4076747E2,1.6865793E1,6.5815285E1],"tree_param":{"num_deleted":"0","num_feature":"23","num_nodes":"29","size_leaf_vector":"1"}},{"base_weights":[4.9112975E-3,-1.8515827E-1,4.423455E-1,8.564646E-2,-4.3927875E-1,6.152865E-1,9.497599E-2,2.5793895E-1,-2.2777218E-1,-7.0460165E-1,-2.3973742E-1,-6.588157E-4,6.819299E-1,-4.1277626E-1,3.2751468E-1,4.7351047E-3,2.8810581E-2,-2.4769079E-2,3.8816184E-3,-5.0272844E-3,-4.0432878E-2,-2.8847998E-3,-2.78562E-2,2.3524364E-2,4.3530352E-2,-3.2453727E-2,1.1060458E-3,6.573809E-3,3.4420166E-2],"categories":[],"categories_nodes":[],"categories_segments":[],"categories_sizes":[],"default_left":[0,0,0,0,0,0,0,0,0,0,0,0,0,0,0,0,0,0,0,0,0,0,0,0,0,0,0,0,0],"id":8,"left_children":[1,3,5,7,9,11,13,15,17,19,21,-1,23,25,27,-1,-1,-1,-1,-1,-1,-1,-1,-1,-1,-1,-1,-1,-1],"loss_changes":[8.3184525E1,4.8044926E1,1.8079807E1,1.8319878E1,1.879496E1,8.535721E0,1.2184551E1,1.1248594E1,9.909149E0,9.494263E0,1.1877298E1,0E0,6.748413E0,3.40522E0,4.8320165E0,0E0,0E0,0E0,0E0,0E0,0E0,0E0,0E0,0E0,0E0,0E0,0E0,0E0,0E0],"parents":[2147483647,0,0,1,1,2,2,3,3,4,4,5,5,6,6,7,7,8,8,9,9,10,10,12,12,13,13,14,14],"right_children":[2,4,6,8,10,12,14,16,18,20,22,-1,24,26,28,-1,-1,-1,-1,-1,-1,-1,-1,-1,-1,-1,-1,-1,-1],"split_conditions":[6E1,6.87E2,7.02E2,4.2921494E1,1.573E1,1.4199772E-1,2.1960354E-1,2.6153445E-1,1.6666389E-1,1E1,1.7573E4,-6.588157E-4,2E0,4.7E1,1.4E1,4.7351047E-3,2.8810581E-2,-2.4769079E-2,3.8816184E-3,-5.0272844E-3,-4.0432878E-2,-2.8847998E-3,-2.78562E-2,2.3524364E-2,4.3530352E-2,-3.2453727E-2,1.1060458E-3,6.573809E-3,3.4420166E-2],"split_indices":[1,4,4,14,3,13,13,13,13,11,9,0,19,10,7,0,0,0,0,0,0,0,0,0,0,0,0,0,0],"split_type":[0,0,0,0,0,0,0,0,0,0,0,0,0,0,0,0,0,0,0,0,0,0,0,0,0,0,0,0,0],"sum_hessian":[9.982058E2,6.9609406E2,3.0211176E2,3.3711514E2,3.589789E2,2.0098862E2,1.0112314E2,2.1785304E2,1.1926211E2,1.5278886E2,2.0619006E2,1.9202854E1,1.8178577E2,3.1386045E1,6.97371E1,1.4506387E2,7.278916E1,6.3407207E1,5.58549E1,2.288224E1,1.2990662E2,1.3198506E2,7.420499E1,8.761873E1,9.416704E1,2.0166294E1,1.1219751E1,4.625325E1,2.3483845E1],"tree_param":{"num_deleted":"0","num_feature":"23","num_nodes":"29","size_leaf_vector":"1"}},{"base_weights":[2.1754E-2,-1.7008951E-1,4.6206793E-1,-3.8074742E-3,-5.131727E-1,5.665373E-1,-3.8190003E-2,-1.7147408E-1,2.0843619E-1,-2.7683878E-1,-9.835546E-1,3.015679E-1,7.235181E-1,-3.598738E-2,1.589654E-1,4.6232413E-3,-1.6982138E-2,2.3073578E-2,-8.249345E-4,2.3181286E-2,-1.75042E-2,-5.6675E-2,-2.135366E-3,6.1899907E-4,3.0853588E-2,4.2797152E-2,1.9238617E-2,3.0644475E-2,-2.7823944E-3],"categories":[],"categories_nodes":[],"categories_segments":[],"categories_sizes":[],"default_left":[0,0,0,0,0,0,0,0,0,0,0,0,0,0,0,0,0,0,0,0,0,0,0,0,0,0,0,0,0],"id":9,"left_children":[1,3,5,7,9,11,13,15,17,19,21,23,25,-1,27,-1,-1,-1,-1,-1,-1,-1,-1,-1,-1,-1,-1,-1,-1],"loss_changes":[8.395796E1,3.9422604E1,1.5840225E1,1.6660921E1,2.4691174E1,1.0069061E1,7.2769713E0,1.16795025E1,1.1800576E1,8.38124E0,1.0406265E1,8.586275E0,6.5401535E0,0E0,4.1546574E0,0E0,0E0,0E0,0E0,0E0,0E0,0E0,0E0,0E0,0E0,0E0,0E0,0E0,0E0],"parents":[2147483647,0,0,1,1,2,2,3,3,4,4,5,5,6,6,7,7,8,8,9,9,10,10,11,11,12,12,14,14],"right_children":[2,4,6,8,10,12,14,16,18,20,22,24,26,-1,28,-1,-1,-1,-1,-1,-1,-1,-1,-1,-1,-1,-1,-1,-1],"split_conditions":[6E1,4.825313E1,7.22E2,1E0,7.07E2,2.4793184E-1,1.8897489E-1,6.82E2,2.5E1,1.0341775E1,3.043412E-1,1E0,9.921131E0,-3.598738E-2,2.27E1,4.6232413E-3,-1.6982138E-2,2.3073578E-2,-8.249345E-4,2.3181286E-2,-1.75042E-2,-5.6675E-2,-2.135366E-3,6.1899907E-4,3.0853588E-2,4.2797152E-2,1.9238617E-2,3.0644475E-2,-2.7823944E-3],"split_indices":[1,14,4,5,4,13,13,4,11,17,13,5,18,0,10,0,0,0,0,0,0,0,0,0,0,0,0,0,0],"split_type":[0,0,0,0,0,0,0,0,0,0,0,0,0,0,0,0,0,0,0,0,0,0,0,0,0,0,0,0,0],"sum_hessian":[9.91646E2,6.9097626E2,3.0066977E2,4.662847E2,2.2469154E2,2.4878348E2,5.1886295E1,2.608688E2,2.0541588E2,1.5075093E2,7.394062E1,9.38802E1,1.5490327E2,1.1160721E1,4.0725574E1,1.0146934E2,1.5939948E2,9.638395E1,1.0903193E2,1.296704E1,1.3778389E2,6.3508106E1,1.0432512E1,4.9690517E1,4.4189686E1,1.10056984E2,4.4846287E1,1.2627526E1,2.8098047E1],"tree_param":{"num_deleted":"0","num_feature":"23","num_nodes":"29","size_leaf_vector":"1"}},{"base_weights":[-2.9774588E-3,-1.8238026E-1,4.1871965E-1,-5.0608397E-2,-5.954315E-1,5.268539E-1,-1.0461537E-1,2.983226E-1,-1.4662476E-1,1.24746636E-1,-7.339144E-1,6.2674814E-1,1.3732642E-1,-3.438167E-2,2.5785688E-1,-0E0,2.447271E-2,-7.041546E-5,-1.5354876E-2,-9.246863E-3,2.634315E-2,-4.3560743E-2,-4.619626E-3,4.5645807E-2,2.36276E-2,-1.5699925E-2,2.076343E-2,3.0836118E-2,-6.3849646E-3],"categories":[],"categories_nodes":[],"categories_segments":[],"categories_sizes":[],"default_left":[0,0,0,0,0,0,0,0,0,0,0,0,0,0,0,0,0,0,0,0,0,0,0,0,0,0,0,0,0],"id":10,"left_children":[1,3,5,7,9,11,13,15,17,19,21,23,25,-1,27,-1,-1,-1,-1,-1,-1,-1,-1,-1,-1,-1,-1,-1,-1],"loss_changes":[7.4280075E1,3.7416275E1,1.6676517E1,1.757647E1,1.6748894E1,9.297829E0,1.0965139E1,6.463189E0,9.561263E0,3.5656936E0,1.2139839E1,7.947052E0,6.551621E0,0E0,4.551634E0,0E0,0E0,0E0,0E0,0E0,0E0,0E0,0E0,0E0,0E0,0E0,0E0,0E0,0E0],"parents":[2147483647,0,0,1,1,2,2,3,3,4,4,5,5,6,6,7,7,8,8,9,9,10,10,11,11,12,12,14,14],"right_children":[2,4,6,8,10,12,14,16,18,20,22,24,26,-1,28,-1,-1,-1,-1,-1,-1,-1,-1,-1,-1,-1,-1,-1,-1],"split_conditions":[6E1,7.12E2,7.22E2,1.375E0,1.3076923E0,2.6666667E0,2.3703265E-1,1.1428572E0,6.82E2,5.05E4,3.0833012E-1,1.051E4,2.3703265E-1,-3.438167E-2,3.382303E-1,-0E0,2.447271E-2,-7.041546E-5,-1.5354876E-2,-9.246863E-3,2.634315E-2,-4.3560743E-2,-4.619626E-3,4.5645807E-2,2.36276E-2,-1.5699925E-2,2.076343E-2,3.0836118E-2,-6.3849646E-3],"split_indices":[1,4,4,15,15,15,13,15,4,2,13,9,13,0,13,0,0,0,0,0,0,0,0,0,0,0,0,0,0],"split_type":[0,0,0,0,0,0,0,0,0,0,0,0,0,0,0,0,0,0,0,0,0,0,0,0,0,0,0,0,0],"sum_hessian":[9.8014703E2,6.8817926E2,2.9196777E2,5.227696E2,1.6540965E2,2.421233E2,4.9844463E1,1.1213041E2,4.106392E2,2.6576433E1,1.3883322E2,1.9201532E2,5.010799E1,1.887071E1,3.0973753E1,4.412468E1,6.800573E1,2.1642337E2,1.9421582E2,1.51784115E1,1.1398022E1,1.13934654E2,2.4898567E1,6.528532E1,1.2673E2,1.891086E1,3.119713E1,1.5865949E1,1.5107804E1],"tree_param":{"num_deleted":"0","num_feature":"23","num_nodes":"29","size_leaf_vector":"1"}},{"base_weights":[9.178307E-3,-1.7696905E-1,4.450285E-1,3.3788227E-2,-3.5957542E-1,7.2201335E-1,2.8930512E-1,1.7925698E-1,-2.4308276E-1,-5.9556395E-1,-1.7404589E-1,5.5418182E-2,5.0477695E-1,9.8252915E-2,5.039249E-1,2.4919322E-2,1.0144155E-3,1.3215043E-2,-2.3921078E-2,-2.3612997E-2,-4.9406838E-2,-5.720696E-3,-4.708067E-2,-2.2152516E-3,3.240549E-2,-5.418919E-4,2.5152067E-2,3.4314137E-2,6.7890943E-3],"categories":[],"categories_nodes":[],"categories_segments":[],"categories_sizes":[],"default_left":[0,0,0,0,0,0,0,0,0,0,0,0,0,0,0,0,0,0,0,0,0,0,0,0,0,0,0,0,0],"id":11,"left_children":[1,3,5,7,9,11,13,15,17,19,21,-1,23,25,27,-1,-1,-1,-1,-1,-1,-1,-1,-1,-1,-1,-1,-1,-1],"loss_changes":[7.9920654E1,2.659612E1,1.2408184E1,1.2962817E1,1.6018093E1,8.109806E0,7.7073984E0,1.0652521E1,1.3369299E1,7.2384567E0,9.34304E0,0E0,5.546955E0,4.574269E0,5.8193893E0,0E0,0E0,0E0,0E0,0E0,0E0,0E0,0E0,0E0,0E0,0E0,0E0,0E0,0E0],"parents":[2147483647,0,0,1,1,2,2,3,3,4,4,5,5,6,6,7,7,8,8,9,9,10,10,12,12,13,13,14,14],"right_children":[2,4,6,8,10,12,14,16,18,20,22,-1,24,26,28,-1,-1,-1,-1,-1,-1,-1,-1,-1,-1,-1,-1,-1,-1],"split_conditions":[6E1,3.5309017E1,2.8953037E1,1.1086762E1,2E0,2.5E1,2E0,2.3367455E1,1.413E4,1.7741E4,3.1333334E0,5.5418182E-2,1.2E1,2E0,9E0,2.4919322E-2,1.0144155E-3,1.3215043E-2,-2.3921078E-2,-2.3612997E-2,-4.9406838E-2,-5.720696E-3,-4.708067E-2,-2.2152516E-3,3.240549E-2,-5.418919E-4,2.5152067E-2,3.4314137E-2,6.7890943E-3],"split_indices":[1,14,14,17,19,11,19,14,9,9,15,0,7,5,12,0,0,0,0,0,0,0,0,0,0,0,0,0,0],"split_type":[0,0,0,0,0,0,0,0,0,0,0,0,0,0,0,0,0,0,0,0,0,0,0,0,0,0,0,0,0],"sum_hessian":[9.827639E2,6.8890424E2,2.938597E2,3.1992563E2,3.6897858E2,1.0421467E2,1.8964505E2,2.1019981E2,1.097258E2,1.6119449E2,2.077841E2,3.5865753E1,6.8348915E1,1.01349E2,8.829604E1,6.89728E1,1.4122702E2,3.459405E1,7.513175E1,1.2453633E2,3.6658154E1,1.9399226E2,1.3791833E1,1.4147111E1,5.4201805E1,8.040578E1,2.0943226E1,5.828771E1,3.0008335E1],"tree_param":{"num_deleted":"0","num_feature":"23","num_nodes":"29","size_leaf_vector":"1"}},{"base_weights":[-5.5883867E-3,-1.722695E-1,3.776995E-1,1.2640168E-3,-4.5007294E-1,-3.0628797E-1,4.3187988E-1,-3.6820263E-1,1.3175903E-1,-2.7812058E-1,-8.414323E-1,-2.6791489E-2,-1.0250158E-3,5.5415654E-1,1.992857E-1,-2.9061884E-2,5.2047665E-3,1.06960405E-2,-9.501785E-3,-6.419287E-3,-3.1127652E-2,-4.7975224E-2,-1.2827451E-2,3.1680826E-2,6.0469806E-3,-2.802286E-3,2.3211712E-2],"categories":[],"categories_nodes":[],"categories_segments":[],"categories_sizes":[],"default_left":[0,0,0,0,0,0,0,0,0,0,0,0,0,0,0,0,0,0,0,0,0,0,0,0,0,0,0],"id":12,"left_children":[1,3,5,7,9,11,13,15,17,19,21,-1,-1,23,25,-1,-1,-1,-1,-1,-1,-1,-1,-1,-1,-1,-1],"loss_changes":[6.2914528E1,3.3150143E1,1.1202465E1,2.0440874E1,1.7436977E1,1.3995683E0,7.6932144E0,1.123515E1,8.341293E0,9.399511E0,5.1564026E0,0E0,0E0,6.069317E0,6.649084E0,0E0,0E0,0E0,0E0,0E0,0E0,0E0,0E0,0E0,0E0,0E0,0E0],"parents":[2147483647,0,0,1,1,2,2,3,3,4,4,5,5,6,6,7,7,8,8,9,9,10,10,13,13,14,14],"right_children":[2,4,6,8,10,12,14,16,18,20,22,-1,-1,24,26,-1,-1,-1,-1,-1,-1,-1,-1,-1,-1,-1,-1],"split_conditions":[6E1,6.97E2,1.3333245E-1,1E0,8.4948E4,5.26E1,1.8658E4,6.94E1,2.5416667E0,4.825313E1,2.8975E4,-2.6791489E-2,-1.0250158E-3,7.27E2,2.223E1,-2.9061884E-2,5.2047665E-3,1.06960405E-2,-9.501785E-3,-6.419287E-3,-3.1127652E-2,-4.7975224E-2,-1.2827451E-2,3.1680826E-2,6.0469806E-3,-2.802286E-3,2.3211712E-2],"split_indices":[1,4,13,21,2,10,9,10,15,14,0,0,0,4,3,0,0,0,0,0,0,0,0,0,0,0,0],"split_type":[0,0,0,0,0,0,0,0,0,0,0,0,0,0,0,0,0,0,0,0,0,0,0,0,0,0,0],"sum_hessian":[9.8308374E2,6.8570245E2,2.9738126E2,4.2244946E2,2.6325302E2,2.1350323E1,2.760309E2,1.0958808E2,3.1286136E2,1.8426035E2,7.899268E1,1.1161047E1,1.0189276E1,1.7973192E2,9.6298996E1,7.55097E1,3.407838E1,2.4974226E2,6.3119102E1,1.2958781E2,5.467252E1,6.504947E1,1.3943213E1,1.5128928E2,2.8442652E1,4.9248833E1,4.7050163E1],"tree_param":{"num_deleted":"0","num_feature":"23","num_nodes":"27","size_leaf_vector":"1"}},{"base_weights":[-5.965627E-3,-1.7379734E-1,3.882126E-1,-2.488656E-1,2.7264115E-1,6.5521026E-1,2.3594777E-1,-4.3135244E-1,-2.4868613E-2,3.9278954E-2,7.8122094E-2,8.635956E-1,3.5314906E-1,4.453901E-1,-9.7254515E-3,-2.625416E-3,-2.632815E-2,6.5043787E-3,-1.6264133E-2,1.4642407E-2,-1.9150047E-2,1.8044695E-2,4.848827E-2,-1.0440434E-2,3.5627533E-2,9.4361035E-3,3.253235E-2,-5.835626E-3,3.0166773E-2],"categories":[],"categories_nodes":[],"categories_segments":[],"categories_sizes":[],"default_left":[0,0,0,0,0,0,0,0,0,0,0,0,0,0,0,0,0,0,0,0,0,0,0,0,0,0,0,0,0],"id":13,"left_children":[1,3,5,7,9,11,13,15,17,-1,19,21,23,25,27,-1,-1,-1,-1,-1,-1,-1,-1,-1,-1,-1,-1,-1,-1],"loss_changes":[6.499713E1,2.3171963E1,1.1681099E1,2.4099201E1,9.783116E0,6.2282333E0,9.752014E0,1.1649303E1,1.2472505E1,0E0,7.3724833E0,2.8087158E0,9.297676E0,5.169363E0,5.76414E0,0E0,0E0,0E0,0E0,0E0,0E0,0E0,0E0,0E0,0E0,0E0,0E0,0E0,0E0],"parents":[2147483647,0,0,1,1,2,2,3,3,4,4,5,5,6,6,7,7,8,8,10,10,11,11,12,12,13,13,14,14],"right_children":[2,4,6,8,10,12,14,16,18,-1,20,22,24,26,28,-1,-1,-1,-1,-1,-1,-1,-1,-1,-1,-1,-1,-1,-1],"split_conditions":[6E1,3.3332777E-1,2.9107426E1,1E0,7.349E3,1.9435E4,7.596E4,1.3478261E0,4.825313E1,3.9278954E-2,3.3913933E1,3.84E4,2.6754E4,2E0,2E0,-2.625416E-3,-2.632815E-2,6.5043787E-3,-1.6264133E-2,1.4642407E-2,-1.9150047E-2,1.8044695E-2,4.848827E-2,-1.0440434E-2,3.5627533E-2,9.4361035E-3,3.253235E-2,-5.835626E-3,3.0166773E-2],"split_indices":[1,13,14,5,9,9,2,15,14,0,14,2,9,19,16,0,0,0,0,0,0,0,0,0,0,0,0,0,0],"split_type":[0,0,0,0,0,0,0,0,0,0,0,0,0,0,0,0,0,0,0,0,0,0,0,0,0,0,0,0,0],"sum_hessian":[9.8079285E2,6.88471E2,2.923218E2,5.899397E2,9.853133E1,1.0472529E2,1.8759653E2,3.2433606E2,2.6560364E2,2.6114887E1,7.2416435E1,6.0676113E1,4.4049175E1,1.01046265E2,8.655026E1,6.566317E1,2.5867288E2,1.7537683E2,9.02268E1,4.9805737E1,2.2610699E1,1.1511515E1,4.9164597E1,1.7237505E1,2.681167E1,4.5969425E1,5.5076843E1,7.451855E1,1.2031713E1],"tree_param":{"num_deleted":"0","num_feature":"23","num_nodes":"29","size_leaf_vector":"1"}},{"base_weights":[1.9929819E-3,-1.7753023E-1,2.3915277E-1,-2.716241E-1,2.076266E-1,7.6558985E-2,4.4400272E-1,-4.8398122E-1,-8.510267E-2,3.4689865E-1,-3.5781994E-1,3.9572727E-2,2.925896E-2,5.48808E-2,5.333206E-1,6.9371513E-3,-2.8583948E-2,-7.1037957E-3,1.9695757E-2,-1.9205246E-2,2.3828303E-2,-2.9514989E-2,-4.3481113E-3,1.5978152E-2,-4.3829475E-3,3.451801E-2,-2.7596492E-2,3.083407E-2,2.4590283E-3],"categories":[],"categories_nodes":[],"categories_segments":[],"categories_sizes":[],"default_left":[0,0,0,0,0,0,0,0,0,0,0,0,0,0,0,0,0,0,0,0,0,0,0,0,0,0,0,0,0],"id":14,"left_children":[1,3,5,7,9,11,13,15,17,19,21,-1,23,25,27,-1,-1,-1,-1,-1,-1,-1,-1,-1,-1,-1,-1,-1,-1],"loss_changes":[4.206614E1,2.0431389E1,1.4098101E1,1.7818249E1,8.841166E0,7.972927E0,6.4445953E0,1.1648434E1,6.6428123E0,8.673526E0,1.2806628E0,0E0,7.6962395E0,1.4436434E1,6.0596504E0,0E0,0E0,0E0,0E0,0E0,0E0,0E0,0E0,0E0,0E0,0E0,0E0,0E0,0E0],"parents":[2147483647,0,0,1,1,2,2,3,3,4,4,5,5,6,6,7,7,8,8,9,9,10,10,12,12,13,13,14,14],"right_children":[2,4,6,8,10,12,14,16,18,20,22,-1,24,26,28,-1,-1,-1,-1,-1,-1,-1,-1,-1,-1,-1,-1,-1,-1],"split_conditions":[2.3703265E-1,2E0,1E0,1.573E1,2.6363637E0,2.001761E1,1E0,1E1,8.7E1,4.2504E4,3.8E1,3.9572727E-2,7.851E3,3.2416786E1,4.1666088E-1,6.9371513E-3,-2.8583948E-2,-7.1037957E-3,1.9695757E-2,-1.9205246E-2,2.3828303E-2,-2.9514989E-2,-4.3481113E-3,1.5978152E-2,-4.3829475E-3,3.451801E-2,-2.7596492E-2,3.083407E-2,2.4590283E-3],"split_indices":[13,5,5,3,15,14,21,11,10,2,11,0,9,14,13,0,0,0,0,0,0,0,0,0,0,0,0,0,0],"split_type":[0,0,0,0,0,0,0,0,0,0,0,0,0,0,0,0,0,0,0,0,0,0,0,0,0,0,0,0,0],"sum_hessian":[9.8589014E2,5.610335E2,4.2485663E2,4.5132834E2,1.0970516E2,2.3789565E2,1.8696097E2,2.1005127E2,2.4127707E2,8.847639E1,2.1228777E1,1.3655703E1,2.2423994E2,3.5413357E1,1.515476E2,2.571707E1,1.843342E2,2.164457E2,2.483137E1,1.2917906E1,7.555848E1,1.059038E1,1.0638397E1,6.41297E1,1.6011024E2,1.7311298E1,1.810206E1,1.2887686E2,2.2670744E1],"tree_param":{"num_deleted":"0","num_feature":"23","num_nodes":"29","size_leaf_vector":"1"}},{"base_weights":[-1.3368509E-2,-1.5364194E-1,3.1769556E-1,-4.1793887E-2,-5.19373E-1,5.752735E-2,5.3623396E-1,-1.22641996E-1,3.241402E-1,-6.302174E-1,-1.2642777E-2,-3.1103848E-2,1.726839E-1,5.961623E-1,-8.282244E-3,-8.586084E-3,2.4738481E-2,2.409484E-2,-6.3923593E-3,-1.32848425E-2,-3.9695866E-2,2.2664538E-2,-1.3985802E-2,1.9249639E-2,-6.3884133E-3,3.525467E-2,1.3558838E-2],"categories":[],"categories_nodes":[],"categories_segments":[],"categories_sizes":[],"default_left":[0,0,0,0,0,0,0,0,0,0,0,0,0,0,0,0,0,0,0,0,0,0,0,0,0,0,0],"id":15,"left_children":[1,3,5,7,9,11,13,15,17,19,21,-1,23,25,-1,-1,-1,-1,-1,-1,-1,-1,-1,-1,-1,-1,-1],"loss_changes":[4.5496246E1,2.8087088E1,1.6481733E1,1.56573515E1,8.96822E0,1.0579951E1,6.7909813E0,1.3199947E1,6.920705E0,7.552803E0,3.8514085E0,0E0,7.4632998E0,4.8794327E0,0E0,0E0,0E0,0E0,0E0,0E0,0E0,0E0,0E0,0E0,0E0,0E0,0E0],"parents":[2147483647,0,0,1,1,2,2,3,3,4,4,5,5,6,6,7,7,8,8,9,9,10,10,12,12,13,13],"right_children":[2,4,6,8,10,12,14,16,18,20,22,-1,24,26,-1,-1,-1,-1,-1,-1,-1,-1,-1,-1,-1,-1,-1],"split_conditions":[6E1,7.12E2,1.856E1,2.669E1,3.0833012E-1,1.4583273E-1,7.42E2,3E0,6.7524E4,1.5833334E0,8.091E3,-3.1103848E-2,1.4208E4,2.4615386E0,-8.282244E-3,-8.586084E-3,2.4738481E-2,2.409484E-2,-6.3923593E-3,-1.32848425E-2,-3.9695866E-2,2.2664538E-2,-1.3985802E-2,1.9249639E-2,-6.3884133E-3,3.525467E-2,1.3558838E-2],"split_indices":[1,4,3,3,13,13,4,5,2,15,9,0,9,15,0,0,0,0,0,0,0,0,0,0,0,0,0],"split_type":[0,0,0,0,0,0,0,0,0,0,0,0,0,0,0,0,0,0,0,0,0,0,0,0,0,0,0],"sum_hessian":[9.779909E2,6.875224E2,2.9046857E2,5.275687E2,1.5995363E2,1.3338985E2,1.570787E2,4.3287015E2,9.469859E1,1.3088274E2,2.9070894E1,1.8563814E1,1.14826035E2,1.4499199E2,1.2086723E1,4.0181284E2,3.1057323E1,7.031256E1,2.4386032E1,4.156388E1,8.9318855E1,1.0201599E1,1.8869295E1,6.731242E1,4.751361E1,1.0748654E2,3.7505444E1],"tree_param":{"num_deleted":"0","num_feature":"23","num_nodes":"27","size_leaf_vector":"1"}},{"base_weights":[1.4138806E-2,-1.4567502E-1,2.6335162E-1,-2.4128851E-1,2.6166266E-1,3.883322E-1,1.2214164E-2,-4.152368E-1,-3.018267E-4,7.8384334E-1,1.3137363E-1,6.843512E-1,2.8165472E-1,-3.2238465E-2,8.690208E-2,-3.1505283E-2,-7.216686E-3,3.40288E-3,-4.2088844E-2,2.2714576E-2,5.1927935E-2,-1.7828302E-2,1.4736853E-2,2.2230439E-2,4.924505E-2,-1.6283867E-3,2.4678227E-2,1.6744746E-2,-8.337768E-3],"categories":[],"categories_nodes":[],"categories_segments":[],"categories_sizes":[],"default_left":[0,0,0,0,0,0,0,0,0,0,0,0,0,0,0,0,0,0,0,0,0,0,0,0,0,0,0,0,0],"id":16,"left_children":[1,3,5,7,9,11,13,15,17,19,21,23,25,-1,27,-1,-1,-1,-1,-1,-1,-1,-1,-1,-1,-1,-1,-1,-1],"loss_changes":[3.8869232E1,2.320546E1,1.1927067E1,2.0163462E1,7.510491E0,7.743664E0,6.283103E0,1.6112335E1,1.182936E1,1.2474613E0,7.43167E0,4.206455E0,1.264321E1,0E0,7.369008E0,0E0,0E0,0E0,0E0,0E0,0E0,0E0,0E0,0E0,0E0,0E0,0E0,0E0,0E0],"parents":[2147483647,0,0,1,1,2,2,3,3,4,4,5,5,6,6,7,7,8,8,9,9,10,10,11,11,12,12,14,14],"right_children":[2,4,6,8,10,12,14,16,18,20,22,24,26,-1,28,-1,-1,-1,-1,-1,-1,-1,-1,-1,-1,-1,-1,-1,-1],"split_conditions":[2.4793184E-1,2E0,7.02E2,3E0,5E0,8.968524E0,1.055E4,1.844E1,7.47E2,9.118006E0,1.123E1,3.3332777E-1,1.7E1,-3.2238465E-2,9.547098E0,-3.1505283E-2,-7.216686E-3,3.40288E-3,-4.2088844E-2,2.2714576E-2,5.1927935E-2,-1.7828302E-2,1.4736853E-2,2.2230439E-2,4.924505E-2,-1.6283867E-3,2.4678227E-2,1.6744746E-2,-8.337768E-3],"split_indices":[13,5,4,19,22,18,0,3,4,18,3,13,22,0,18,0,0,0,0,0,0,0,0,0,0,0,0,0,0],"split_type":[0,0,0,0,0,0,0,0,0,0,0,0,0,0,0,0,0,0,0,0,0,0,0,0,0,0,0,0,0],"sum_hessian":[9.7367694E2,5.932531E2,3.804239E2,4.8100174E2,1.1225135E2,2.5338188E2,1.2704199E2,2.786961E2,2.0230563E2,2.126009E1,9.099126E1,6.544002E1,1.8794186E2,1.2052434E1,1.1498956E2,1.544767E2,1.2421941E2,1.8784576E2,1.4459861E1,1.0653139E1,1.0606952E1,2.2372746E1,6.8618515E1,3.796675E1,2.7473267E1,7.584798E1,1.1209389E2,5.818141E1,5.680815E1],"tree_param":{"num_deleted":"0","num_feature":"23","num_nodes":"29","size_leaf_vector":"1"}},{"base_weights":[1.8325142E-3,1.4384003E-1,-2.836023E-1,3.055095E-2,4.177305E-1,-1.1258889E-1,-6.065985E-1,1.7446606E-1,-2.0560604E-1,5.459372E-1,9.4702445E-2,-2.560756E-1,1.4453836E-1,-1.18355624E-1,-7.7919954E-1,1.6128753E-3,1.7192531E-2,-2.5164083E-2,-4.6213814E-3,4.0395968E-2,2.0281587E-2,-7.279637E-3,1.9235713E-2,-2.1394605E-2,2.9684922E-3,1.6627742E-2,-9.272156E-3,-2.9577667E-2,1.9472618E-2,-4.9556714E-2,-1.3756721E-2],"categories":[],"categories_nodes":[],"categories_segments":[],"categories_sizes":[],"default_left":[0,0,0,0,0,0,0,0,0,0,0,0,0,0,0,0,0,0,0,0,0,0,0,0,0,0,0,0,0,0,0],"id":17,"left_children":[1,3,5,7,9,11,13,15,17,19,21,23,25,27,29,-1,-1,-1,-1,-1,-1,-1,-1,-1,-1,-1,-1,-1,-1,-1,-1],"loss_changes":[3.9299034E1,2.0045528E1,1.7645313E1,1.56547165E1,7.7212715E0,7.8680773E0,9.174953E0,6.850258E0,5.7642636E0,4.5145645E0,3.9265628E0,7.4684906E0,4.810467E0,7.538806E0,8.328926E0,0E0,0E0,0E0,0E0,0E0,0E0,0E0,0E0,0E0,0E0,0E0,0E0,0E0,0E0,0E0,0E0],"parents":[2147483647,0,0,1,1,2,2,3,3,4,4,5,5,6,6,7,7,8,8,9,9,10,10,11,11,12,12,13,13,14,14],"right_children":[2,4,6,8,10,12,14,16,18,20,22,24,26,28,30,-1,-1,-1,-1,-1,-1,-1,-1,-1,-1,-1,-1,-1,-1,-1,-1],"split_conditions":[7.02E2,6E1,4.825313E1,2.0625E0,2.4615386E0,3E0,3.572E3,1E0,1E0,2.7542717E1,2E0,6E1,2.7E1,3E0,6E1,1.6128753E-3,1.7192531E-2,-2.5164083E-2,-4.6213814E-3,4.0395968E-2,2.0281587E-2,-7.279637E-3,1.9235713E-2,-2.1394605E-2,2.9684922E-3,1.6627742E-2,-9.272156E-3,-2.9577667E-2,1.9472618E-2,-4.9556714E-2,-1.3756721E-2],"split_indices":[4,1,14,15,15,19,9,5,21,14,19,1,11,19,1,0,0,0,0,0,0,0,0,0,0,0,0,0,0,0,0],"split_type":[0,0,0,0,0,0,0,0,0,0,0,0,0,0,0,0,0,0,0,0,0,0,0,0,0,0,0,0,0,0,0],"sum_hessian":[9.678736E2,6.4688586E2,3.209877E2,4.586511E2,1.882348E2,2.109542E2,1.10033516E2,2.854073E2,1.7324379E2,1.3403714E2,5.4197666E1,1.356496E2,7.5304596E1,2.933046E1,8.070306E1,1.561178E2,1.2928949E2,4.6530773E1,1.2671302E2,4.483988E1,8.919725E1,2.9723127E1,2.4474539E1,8.77918E1,4.7857796E1,4.815955E1,2.7145044E1,1.5199195E1,1.4131266E1,5.599516E1,2.4707895E1],"tree_param":{"num_deleted":"0","num_feature":"23","num_nodes":"31","size_leaf_vector":"1"}},{"base_weights":[1.0120745E-2,-1.1426693E-1,3.170448E-1,1.0334857E-1,-3.2334965E-1,1.1338477E-1,4.9149522E-1,-2.3785292E-1,2.0344284E-1,-5.535621E-1,-1.5725526E-1,-9.687442E-2,3.651483E-1,3.2510105E-1,7.8224725E-1,-4.2731483E-2,-6.5919184E-3,1.1358694E-3,1.9297061E-2,-3.9578628E-2,-1.4680952E-2,-1.5701639E-2,5.4905517E-3,9.113342E-3,-1.6411398E-2,2.8603172E-2,-1.0946333E-2,1.0133259E-2,3.99618E-2,2.1073245E-2,4.6451796E-2],"categories":[],"categories_nodes":[],"categories_segments":[],"categories_sizes":[],"default_left":[0,0,0,0,0,0,0,0,0,0,0,0,0,0,0,0,0,0,0,0,0,0,0,0,0,0,0,0,0,0,0],"id":18,"left_children":[1,3,5,7,9,11,13,15,17,19,21,23,25,27,29,-1,-1,-1,-1,-1,-1,-1,-1,-1,-1,-1,-1,-1,-1,-1,-1],"loss_changes":[3.7554222E1,3.1879562E1,9.9651985E0,1.1767683E1,1.3499691E1,7.0751967E0,7.0018616E0,4.8947573E0,8.728849E0,8.880695E0,8.811514E0,4.773623E0,7.49837E0,5.4720173E0,2.359394E0,0E0,0E0,0E0,0E0,0E0,0E0,0E0,0E0,0E0,0E0,0E0,0E0,0E0,0E0,0E0,0E0],"parents":[2147483647,0,0,1,1,2,2,3,3,4,4,5,5,6,6,7,7,8,8,9,9,10,10,11,11,12,12,13,13,14,14],"right_children":[2,4,6,8,10,12,14,16,18,20,22,24,26,28,30,-1,-1,-1,-1,-1,-1,-1,-1,-1,-1,-1,-1,-1,-1,-1,-1],"split_conditions":[6E1,6.87E2,1.856E1,2E0,1.573E1,1E0,1E0,3.54E1,3E0,2.2E1,3E0,1.1247E4,3.5E1,3.14E1,1.1E1,-4.2731483E-2,-6.5919184E-3,1.1358694E-3,1.9297061E-2,-3.9578628E-2,-1.4680952E-2,-1.5701639E-2,5.4905517E-3,9.113342E-3,-1.6411398E-2,2.8603172E-2,-1.0946333E-2,1.0133259E-2,3.99618E-2,2.1073245E-2,4.6451796E-2],"split_indices":[1,4,3,20,3,5,16,10,19,22,19,9,22,3,7,0,0,0,0,0,0,0,0,0,0,0,0,0,0,0,0],"split_type":[0,0,0,0,0,0,0,0,0,0,0,0,0,0,0,0,0,0,0,0,0,0,0,0,0,0,0,0,0,0,0],"sum_hessian":[9.811924E2,6.984373E2,2.827551E2,3.4224866E2,3.5618863E2,1.3148164E2,1.5127345E2,7.708973E1,2.6515894E2,1.4805058E2,2.0813805E2,7.176524E1,5.9716404E1,9.777817E1,5.3495285E1,1.0132963E1,6.6956764E1,1.3406691E2,1.3109203E2,7.6017334E1,7.203324E1,1.3127405E2,7.6864E1,3.2423893E1,3.934135E1,4.4236797E1,1.5479606E1,7.901299E1,1.876517E1,1.6787313E1,3.6707973E1],"tree_param":{"num_deleted":"0","num_feature":"23","num_nodes":"31","size_leaf_vector":"1"}},{"base_weights":[-3.023108E-3,-1.2940732E-1,2.6888368E-1,6.9648284E-3,-4.1200998E-1,4.1161168E-1,6.734536E-2,-2.1068992E-2,4.83937E-2,9.650587E-3,-5.6485593E-1,2.7970174E-1,7.468129E-1,-2.057603E-1,2.9255208E-1,-8.89879E-3,8.356668E-3,-1.20244995E-2,1.6268414E-2,-2.010195E-2,-4.5081604E-2,1.9281657E-2,-1.4076388E-2,4.7160245E-2,2.2337023E-2,1.9324256E-2,-2.0247018E-2,2.605838E-2,-1.9117097E-3],"categories":[],"categories_nodes":[],"categories_segments":[],"categories_sizes":[],"default_left":[0,0,0,0,0,0,0,0,0,0,0,0,0,0,0,0,0,0,0,0,0,0,0,0,0,0,0,0,0],"id":19,"left_children":[1,3,5,7,9,11,13,15,-1,17,19,21,23,25,27,-1,-1,-1,-1,-1,-1,-1,-1,-1,-1,-1,-1,-1,-1],"loss_changes":[3.3216164E1,2.5493797E1,8.743555E0,1.2134161E1,1.393055E1,7.6030693E0,7.978133E0,1.2858951E1,0E0,4.672197E0,8.178356E0,7.8632994E0,2.370617E0,7.059617E0,5.4443593E0,0E0,0E0,0E0,0E0,0E0,0E0,0E0,0E0,0E0,0E0,0E0,0E0,0E0,0E0],"parents":[2147483647,0,0,1,1,2,2,3,3,4,4,5,5,6,6,7,7,9,9,10,10,11,11,12,12,13,13,14,14],"right_children":[2,4,6,8,10,12,14,16,-1,18,20,22,24,26,28,-1,-1,-1,-1,-1,-1,-1,-1,-1,-1,-1,-1,-1,-1],"split_conditions":[2.758573E-1,7.02E2,1.4208E4,4E0,1.4736842E0,5.824E4,1.2E1,3E0,4.83937E-2,1.729E1,5.307808E1,3.9E1,1E1,4.6E4,6.97E2,-8.89879E-3,8.356668E-3,-1.20244995E-2,1.6268414E-2,-2.010195E-2,-4.5081604E-2,1.9281657E-2,-1.4076388E-2,4.7160245E-2,2.2337023E-2,1.9324256E-2,-2.0247018E-2,2.605838E-2,-1.9117097E-3],"split_indices":[13,4,9,5,15,2,7,19,0,3,14,22,12,2,4,0,0,0,0,0,0,0,0,0,0,0,0,0,0],"split_type":[0,0,0,0,0,0,0,0,0,0,0,0,0,0,0,0,0,0,0,0,0,0,0,0,0,0,0,0,0],"sum_hessian":[9.6497076E2,6.593787E2,3.0559207E2,4.451767E2,2.1420201E2,1.779972E2,1.2759489E2,4.334064E2,1.1770308E1,5.7063072E1,1.5713895E2,1.2926212E2,4.8735077E1,5.7503433E1,7.009145E1,2.366739E2,1.9673248E2,3.1794266E1,2.5268805E1,1.076065E2,4.9532448E1,1.0915104E2,2.0111074E1,2.7959547E1,2.077553E1,1.4109012E1,4.339442E1,4.128501E1,2.8806442E1],"tree_param":{"num_deleted":"0","num_feature":"23","num_nodes":"29","size_leaf_vector":"1"}},{"base_weights":[-1.6126245E-2,-1.374573E-1,2.750549E-1,3.8831163E-2,-3.0795026E-1,3.8446486E-1,-1.9234179E-1,1.0991683E-1,-3.7568003E-1,-2.0167686E-1,-6.5612406E-1,2.1877335E-1,6.226953E-1,-4.0518332E-2,-3.6817916E-2,2.1484043E-3,2.4582893E-2,-3.6910772E-2,7.833904E-3,-1.5134419E-2,5.714473E-3,-8.350755E-3,-4.055544E-2,-2.3513647E-2,1.4970754E-2,3.6084972E-2,-3.8730353E-3,-1.6149132E-2,8.56397E-3],"categories":[],"categories_nodes":[],"categories_segments":[],"categories_sizes":[],"default_left":[0,0,0,0,0,0,0,0,0,0,0,0,0,0,0,0,0,0,0,0,0,0,0,0,0,0,0,0,0],"id":20,"left_children":[1,3,5,7,9,11,13,15,17,19,21,23,25,27,-1,-1,-1,-1,-1,-1,-1,-1,-1,-1,-1,-1,-1,-1,-1],"loss_changes":[3.4385456E1,2.0700626E1,1.4726759E1,9.991159E0,1.2727512E1,8.952587E0,4.416389E0,7.3367834E0,9.743483E0,8.661669E0,5.91848E0,7.8390245E0,6.6735153E0,2.70423E0,0E0,0E0,0E0,0E0,0E0,0E0,0E0,0E0,0E0,0E0,0E0,0E0,0E0,0E0,0E0],"parents":[2147483647,0,0,1,1,2,2,3,3,4,4,5,5,6,6,7,7,8,8,9,9,10,10,11,11,12,12,13,13],"right_children":[2,4,6,8,10,12,14,16,18,20,22,24,26,28,-1,-1,-1,-1,-1,-1,-1,-1,-1,-1,-1,-1,-1,-1,-1],"split_conditions":[6E1,6.87E2,2.7333333E0,2.8181818E0,9.2E4,2.2E1,5.6270626E1,3.3332777E-1,3.6E1,2.554E1,6.97E2,1.399972E-1,7.27E2,3.1333334E0,-3.6817916E-2,2.1484043E-3,2.4582893E-2,-3.6910772E-2,7.833904E-3,-1.5134419E-2,5.714473E-3,-8.350755E-3,-4.055544E-2,-2.3513647E-2,1.4970754E-2,3.6084972E-2,-3.8730353E-3,-1.6149132E-2,8.56397E-3],"split_indices":[1,4,15,15,2,3,14,13,11,3,4,13,4,15,0,0,0,0,0,0,0,0,0,0,0,0,0,0,0],"split_type":[0,0,0,0,0,0,0,0,0,0,0,0,0,0,0,0,0,0,0,0,0,0,0,0,0,0,0,0,0],"sum_hessian":[9.716032E2,6.8644336E2,2.8515982E2,3.3757697E2,3.488664E2,2.3138724E2,5.377259E1,2.8899286E2,4.858411E1,2.6871326E2,8.015312E1,1.3784962E2,9.353761E1,4.3023846E1,1.0748743E1,2.4704184E2,4.195104E1,2.8783632E1,1.9800478E1,2.0389001E2,6.482326E1,1.994199E1,6.0211136E1,1.3806635E1,1.2404299E2,8.204786E1,1.1489754E1,1.841365E1,2.4610195E1],"tree_param":{"num_deleted":"0","num_feature":"23","num_nodes":"29","size_leaf_vector":"1"}},{"base_weights":[-8.066335E-3,-1.1738432E-1,2.502307E-1,-3.311122E-1,1.6117822E-2,1.4606273E-1,5.4475677E-1,1.2038824E-1,-4.5266533E-1,1.9995084E-1,-1.0390159E-1,-6.825594E-2,3.8998398E-1,6.5278953E-1,-0E0,-1.3232994E-3,2.7282765E-2,-1.3538581E-2,-4.500134E-2,3.228724E-3,2.322408E-2,-5.014365E-4,-2.3556253E-2,1.842696E-2,-1.1304052E-2,2.3864394E-2,-1.5354655E-2,2.4579683E-2,4.745839E-2],"categories":[],"categories_nodes":[],"categories_segments":[],"categories_sizes":[],"default_left":[0,0,0,0,0,0,0,0,0,0,0,0,0,0,0,0,0,0,0,0,0,0,0,0,0,0,0,0,0],"id":21,"left_children":[1,3,5,7,9,11,13,15,17,19,21,23,25,27,-1,-1,-1,-1,-1,-1,-1,-1,-1,-1,-1,-1,-1,-1,-1],"loss_changes":[2.7044613E1,1.9254547E1,8.585882E0,1.4317827E1,9.191908E0,1.1137833E1,4.282261E0,3.5396044E0,1.6294025E1,5.8146806E0,8.618624E0,7.889538E0,6.218112E0,2.3236542E0,0E0,0E0,0E0,0E0,0E0,0E0,0E0,0E0,0E0,0E0,0E0,0E0,0E0,0E0,0E0],"parents":[2147483647,0,0,1,1,2,2,3,3,4,4,5,5,6,6,7,7,8,8,9,9,10,10,11,11,12,12,13,13],"right_children":[2,4,6,8,10,12,14,16,18,20,22,24,26,28,-1,-1,-1,-1,-1,-1,-1,-1,-1,-1,-1,-1,-1,-1,-1],"split_conditions":[6E1,1.521E1,2.487E1,1.3478261E0,6.82E2,2E0,2.6E0,1.25E0,7.07E2,1.4E1,9.2E4,6.77E2,7.37E2,1E0,-0E0,-1.3232994E-3,2.7282765E-2,-1.3538581E-2,-4.500134E-2,3.228724E-3,2.322408E-2,-5.014365E-4,-2.3556253E-2,1.842696E-2,-1.1304052E-2,2.3864394E-2,-1.5354655E-2,2.4579683E-2,4.745839E-2],"split_indices":[1,3,3,15,4,19,15,15,4,7,2,4,4,16,0,0,0,0,0,0,0,0,0,0,0,0,0,0,0],"split_type":[0,0,0,0,0,0,0,0,0,0,0,0,0,0,0,0,0,0,0,0,0,0,0,0,0,0,0,0,0],"sum_hessian":[9.5621906E2,6.725227E2,2.8369632E2,2.5828876E2,4.1423395E2,2.1093005E2,7.276627E1,5.4614384E1,2.0367438E2,1.6368532E2,2.5054863E2,1.1244326E2,9.84868E1,6.0419933E1,1.2346335E1,4.111803E1,1.3496356E1,1.4610002E2,5.757435E1,1.0934766E2,5.4337666E1,2.0057542E2,4.9973213E1,2.9322334E1,8.3120926E1,8.793263E1,1.0554172E1,4.107559E1,1.9344345E1],"tree_param":{"num_deleted":"0","num_feature":"23","num_nodes":"29","size_leaf_vector":"1"}},{"base_weights":[-1.11277026E-4,-1.2080287E-1,2.5615558E-1,-2.900576E-1,1.0803316E-1,1.4694941E-1,4.8327926E-1,-3.8573328E-1,8.877924E-2,-2.6166677E-1,2.2058575E-1,1.9007805E-1,-2.068437E-2,2.857622E-1,7.1217394E-1,-1.1817521E-2,-3.1392597E-2,1.3511302E-2,-2.1296954E-2,-3.4275662E-2,-3.3735582E-3,1.5662845E-2,-1.6990269E-2,3.148671E-2,6.7204484E-3,2.537457E-2,-2.5468105E-2,4.8550617E-2,1.9164061E-2],"categories":[],"categories_nodes":[],"categories_segments":[],"categories_sizes":[],"default_left":[0,0,0,0,0,0,0,0,0,0,0,0,0,0,0,0,0,0,0,0,0,0,0,0,0,0,0,0,0],"id":22,"left_children":[1,3,5,7,9,11,13,15,17,19,21,23,-1,25,27,-1,-1,-1,-1,-1,-1,-1,-1,-1,-1,-1,-1,-1,-1],"loss_changes":[2.963857E1,2.530333E1,7.4727917E0,1.366781E1,1.1608671E1,5.10591E0,4.1656113E0,1.0617401E1,7.223523E0,5.233562E0,1.1198227E1,4.606048E0,0E0,9.948734E0,3.3131943E0,0E0,0E0,0E0,0E0,0E0,0E0,0E0,0E0,0E0,0E0,0E0,0E0,0E0,0E0],"parents":[2147483647,0,0,1,1,2,2,3,3,4,4,5,5,6,6,7,7,8,8,9,9,10,10,11,11,13,13,14,14],"right_children":[2,4,6,8,10,12,14,16,18,20,22,24,-1,26,28,-1,-1,-1,-1,-1,-1,-1,-1,-1,-1,-1,-1,-1,-1],"split_conditions":[2.758573E-1,3E0,1E0,2E0,2E0,4.3E1,1.0915107E1,7.02E2,7.09E1,1.24997765E-1,7.22E2,4.615E3,-2.068437E-2,1.0819798E1,1.2965E4,-1.1817521E-2,-3.1392597E-2,1.3511302E-2,-2.1296954E-2,-3.4275662E-2,-3.3735582E-3,1.5662845E-2,-1.6990269E-2,3.148671E-2,6.7204484E-3,2.537457E-2,-2.5468105E-2,4.8550617E-2,1.9164061E-2],"split_indices":[13,19,16,5,20,22,17,4,10,13,4,9,0,17,9,0,0,0,0,0,0,0,0,0,0,0,0,0,0],"split_type":[0,0,0,0,0,0,0,0,0,0,0,0,0,0,0,0,0,0,0,0,0,0,0,0,0,0,0,0,0],"sum_hessian":[9.567069E2,6.510206E2,3.0568628E2,3.7432608E2,2.7669455E2,2.0783961E2,9.784666E1,2.9904715E2,7.527894E1,6.406099E1,2.1263356E2,1.9377243E2,1.4067184E1,5.396483E1,4.388183E1,1.864191E2,1.1262805E2,5.615326E1,1.9125677E1,1.9171907E1,4.488908E1,1.8299188E2,2.9641676E1,2.0417027E1,1.7335541E2,4.2578777E1,1.138605E1,2.3293465E1,2.0588364E1],"tree_param":{"num_deleted":"0","num_feature":"23","num_nodes":"29","size_leaf_vector":"1"}},{"base_weights":[-2.1187546E-2,-1.428198E-1,2.6797932E-1,5.351351E-2,-2.774879E-1,3.5805848E-1,-1.346434E-1,-7.423229E-2,3.109928E-1,-3.3630875E-1,3.0694702E-1,4.414815E-1,-3.7974216E-2,4.8443373E-2,-3.570975E-2,-6.840656E-4,-3.804415E-2,2.6808232E-2,-9.732662E-4,1.3847968E-3,-2.128617E-2,3.5602715E-2,-3.178776E-3,1.9202784E-2,4.6552353E-2,-1.8278776E-2,5.1822583E-3,-1.823373E-2,2.1061359E-2],"categories":[],"categories_nodes":[],"categories_segments":[],"categories_sizes":[],"default_left":[0,0,0,0,0,0,0,0,0,0,0,0,0,0,0,0,0,0,0,0,0,0,0,0,0,0,0,0,0],"id":23,"left_children":[1,3,5,7,9,11,13,15,17,19,21,23,25,27,-1,-1,-1,-1,-1,-1,-1,-1,-1,-1,-1,-1,-1,-1,-1],"loss_changes":[3.4065434E1,1.8073093E1,1.046707E1,9.192945E0,1.4031532E1,7.81205E0,5.7177687E0,7.662348E0,6.9571724E0,1.2050831E1,5.725217E0,4.9698334E0,1.9919434E0,6.478113E0,0E0,0E0,0E0,0E0,0E0,0E0,0E0,0E0,0E0,0E0,0E0,0E0,0E0,0E0,0E0],"parents":[2147483647,0,0,1,1,2,2,3,3,4,4,5,5,6,6,7,7,8,8,9,9,10,10,11,11,12,12,13,13],"right_children":[2,4,6,8,10,12,14,16,18,20,22,24,26,28,-1,-1,-1,-1,-1,-1,-1,-1,-1,-1,-1,-1,-1,-1,-1],"split_conditions":[6E1,6.82E2,2.7777777E0,2E0,3.749922E-1,7.22E2,5.6270626E1,3.2222223E0,2.1E0,1.3478261E0,2.1E1,3.164E1,1.9999875E-1,3.1888836E1,-3.570975E-2,-6.840656E-4,-3.804415E-2,2.6808232E-2,-9.732662E-4,1.3847968E-3,-2.128617E-2,3.5602715E-2,-3.178776E-3,1.9202784E-2,4.6552353E-2,-1.8278776E-2,5.1822583E-3,-1.823373E-2,2.1061359E-2],"split_indices":[1,4,15,21,13,4,14,15,15,15,11,3,13,14,0,0,0,0,0,0,0,0,0,0,0,0,0,0,0],"split_type":[0,0,0,0,0,0,0,0,0,0,0,0,0,0,0,0,0,0,0,0,0,0,0,0,0,0,0,0,0],"sum_hessian":[9.668055E2,6.8114667E2,2.856588E2,2.7706793E2,4.0407874E2,2.337261E2,5.1932705E1,1.854046E2,9.166334E1,3.6767E2,3.6408722E1,1.9317265E2,4.0553463E1,4.0030495E1,1.1902212E1,1.7145108E2,1.3953526E1,5.4326065E1,3.733727E1,7.242041E1,2.952496E2,1.7081244E1,1.9327478E1,1.746724E2,1.850026E1,1.1975601E1,2.857786E1,1.8871098E1,2.1159395E1],"tree_param":{"num_deleted":"0","num_feature":"23","num_nodes":"29","size_leaf_vector":"1"}},{"base_weights":[7.6086842E-3,-2.545928E-1,1.0311305E-1,2.5121462E-1,-3.634413E-1,1.022285E-2,2.9808405E-1,3.8060088E-2,-9.745817E-2,-9.323999E-3,-5.0244856E-1,-1.283164E-1,1.8112887E-1,3.4498525E-1,-1.2170669E-2,-2.2609225E-2,1.543204E-2,-2.4277179E-2,6.908711E-3,-5.8326155E-2,-2.1647481E-2,-8.472524E-3,3.2597862E-2,1.2904033E-2,-1.825278E-2,2.8491035E-2,1.0838241E-2],"categories":[],"categories_nodes":[],"categories_segments":[],"categories_sizes":[],"default_left":[0,0,0,0,0,0,0,0,0,0,0,0,0,0,0,0,0,0,0,0,0,0,0,0,0,0,0],"id":24,"left_children":[1,3,5,7,9,11,13,-1,15,17,19,21,23,25,-1,-1,-1,-1,-1,-1,-1,-1,-1,-1,-1,-1,-1],"loss_changes":[2.4046968E1,1.4212328E1,1.2726454E1,8.286909E0,1.035355E1,1.1360242E1,5.858568E0,0E0,4.1845107E0,4.3747706E0,6.333309E0,8.55439E0,9.120126E0,5.8364105E0,0E0,0E0,0E0,0E0,0E0,0E0,0E0,0E0,0E0,0E0,0E0,0E0,0E0],"parents":[2147483647,0,0,1,1,2,2,3,3,4,4,5,5,6,6,8,8,9,9,10,10,11,11,12,12,13,13],"right_children":[2,4,6,8,10,12,14,-1,16,18,20,22,24,26,-1,-1,-1,-1,-1,-1,-1,-1,-1,-1,-1,-1,-1],"split_conditions":[1E0,1.375E0,6E1,3.4176563E1,2.9107426E1,1E0,3.4444444E0,3.8060088E-2,6E0,7.544E3,1.4615384E0,4.3977797E-1,1.17280445E1,2.9107426E1,-1.2170669E-2,-2.2609225E-2,1.543204E-2,-2.4277179E-2,6.908711E-3,-5.8326155E-2,-2.1647481E-2,-8.472524E-3,3.2597862E-2,1.2904033E-2,-1.825278E-2,2.8491035E-2,1.0838241E-2],"split_indices":[21,15,1,14,14,5,15,0,12,9,15,13,17,14,0,0,0,0,0,0,0,0,0,0,0,0,0],"split_type":[0,0,0,0,0,0,0,0,0,0,0,0,0,0,0,0,0,0,0,0,0,0,0,0,0,0,0],"sum_hessian":[9.588457E2,2.5527917E2,7.035665E2,4.481269E1,2.1046649E2,4.775922E2,2.259743E2,1.7832949E1,2.6979742E1,5.9832153E1,1.5063434E2,2.6358774E2,2.1400447E2,2.0846585E2,1.750846E1,1.4471602E1,1.2508141E1,1.376759E1,4.6064564E1,1.263937E1,1.3799496E2,2.5125327E2,1.23344555E1,1.8819965E2,2.5804821E1,7.417517E1,1.3429068E2],"tree_param":{"num_deleted":"0","num_feature":"23","num_nodes":"27","size_leaf_vector":"1"}},{"base_weights":[1.226714E-3,-1.0368437E-1,2.284256E-1,-2.855785E-1,5.6957733E-2,1.4552377E-1,5.841808E-1,-6.942152E-2,-5.183642E-1,-1.9949132E-1,1.6391145E-1,4.2460263E-1,7.302251E-2,7.278683E-1,3.3603143E-3,-1.3284944E-2,7.323173E-3,-1.0358363E-2,-3.1675592E-2,1.303491E-2,-1.7336037E-2,1.1150475E-2,-2.2916662E-2,3.568357E-2,5.383426E-3,6.3338964E-3,-3.289837E-2,2.4558177E-2,5.0276883E-2],"categories":[],"categories_nodes":[],"categories_segments":[],"categories_sizes":[],"default_left":[0,0,0,0,0,0,0,0,0,0,0,0,0,0,0,0,0,0,0,0,0,0,0,0,0,0,0,0,0],"id":25,"left_children":[1,3,5,7,9,11,13,15,17,19,21,23,25,27,-1,-1,-1,-1,-1,-1,-1,-1,-1,-1,-1,-1,-1,-1,-1],"loss_changes":[2.309647E1,1.938969E1,8.873581E0,1.5555944E1,9.689498E0,4.975909E0,4.129072E0,6.9430714E0,5.137501E0,7.1341085E0,9.248929E0,4.5174837E0,7.8694744E0,2.2875652E0,0E0,0E0,0E0,0E0,0E0,0E0,0E0,0E0,0E0,0E0,0E0,0E0,0E0,0E0,0E0],"parents":[2147483647,0,0,1,1,2,2,3,3,4,4,5,5,6,6,7,7,8,8,9,9,10,10,11,11,12,12,13,13],"right_children":[2,4,6,8,10,12,14,16,18,20,22,24,26,28,-1,-1,-1,-1,-1,-1,-1,-1,-1,-1,-1,-1,-1,-1,-1],"split_conditions":[2.758573E-1,2E0,1E0,3.796647E1,1E0,6.418E3,2.0355E4,1E0,6.77E2,1.375E0,7.32E2,7.02E2,7.47E2,1.2E1,3.3603143E-3,-1.3284944E-2,7.323173E-3,-1.0358363E-2,-3.1675592E-2,1.303491E-2,-1.7336037E-2,1.1150475E-2,-2.2916662E-2,3.568357E-2,5.383426E-3,6.3338964E-3,-3.289837E-2,2.4558177E-2,5.0276883E-2],"split_indices":[13,19,6,14,21,9,9,5,4,15,4,4,4,7,0,0,0,0,0,0,0,0,0,0,0,0,0,0,0],"split_type":[0,0,0,0,0,0,0,0,0,0,0,0,0,0,0,0,0,0,0,0,0,0,0,0,0,0,0,0,0],"sum_hessian":[9.6647003E2,6.612401E2,3.0522992E2,3.1003455E2,3.5120557E2,2.4891522E2,5.6314716E1,1.6165497E2,1.483796E2,1.02834114E2,2.4837146E2,5.0044266E1,1.9887096E2,4.3596233E1,1.2718482E1,8.479442E1,7.686055E1,4.1065086E1,1.073145E2,2.457404E1,7.826008E1,2.2756102E2,2.0810432E1,2.5353012E1,2.4691254E1,1.8616943E2,1.2701527E1,2.5223219E1,1.8373014E1],"tree_param":{"num_deleted":"0","num_feature":"23","num_nodes":"29","size_leaf_vector":"1"}},{"base_weights":[7.0312493E-3,-1.1885269E-1,2.1167551E-1,1.0319082E-3,-3.5669288E-1,7.489976E-2,3.671939E-1,5.7468157E-2,-4.4750407E-1,-5.605706E-1,-8.726775E-2,4.186788E-1,-5.1356502E-2,4.9243268E-1,5.316763E-2,-1.2400252E-3,1.9989826E-2,-1.0930719E-2,-4.700854E-2,-1.277753E-2,-3.5327192E-2,-1.4123358E-2,1.2892899E-2,1.0802051E-2,5.648755E-2,-7.666251E-3,1.6081054E-2,3.0085517E-2,-3.7789538E-3,2.851901E-2,-5.4644705E-3],"categories":[],"categories_nodes":[],"categories_segments":[],"categories_sizes":[],"default_left":[0,0,0,0,0,0,0,0,0,0,0,0,0,0,0,0,0,0,0,0,0,0,0,0,0,0,0,0,0,0,0],"id":26,"left_children":[1,3,5,7,9,11,13,15,17,19,21,23,25,27,29,-1,-1,-1,-1,-1,-1,-1,-1,-1,-1,-1,-1,-1,-1,-1,-1],"loss_changes":[2.4511765E1,1.6819454E1,7.63982E0,9.9115095E0,1.0737503E1,8.499891E0,6.5675316E0,9.885788E0,4.6103334E0,4.712532E0,5.901986E0,7.195264E0,5.4682155E0,7.577667E0,4.2714787E0,0E0,0E0,0E0,0E0,0E0,0E0,0E0,0E0,0E0,0E0,0E0,0E0,0E0,0E0,0E0,0E0],"parents":[2147483647,0,0,1,1,2,2,3,3,4,4,5,5,6,6,7,7,8,8,9,9,10,10,11,11,12,12,13,13,14,14],"right_children":[2,4,6,8,10,12,14,16,18,20,22,24,26,28,30,-1,-1,-1,-1,-1,-1,-1,-1,-1,-1,-1,-1,-1,-1,-1,-1],"split_conditions":[2.4999583E-1,4.879227E1,6E1,2.9375E0,3E0,1.4375E0,9.9105625E0,2E0,8.7E4,6.77E2,1.6666389E-1,2.04E4,1E0,7.27E2,2.1E4,-1.2400252E-3,1.9989826E-2,-1.0930719E-2,-4.700854E-2,-1.277753E-2,-3.5327192E-2,-1.4123358E-2,1.2892899E-2,1.0802051E-2,5.648755E-2,-7.666251E-3,1.6081054E-2,3.0085517E-2,-3.7789538E-3,2.851901E-2,-5.4644705E-3],"split_indices":[13,14,1,15,19,15,18,5,2,4,13,0,6,4,0,0,0,0,0,0,0,0,0,0,0,0,0,0,0,0,0],"split_type":[0,0,0,0,0,0,0,0,0,0,0,0,0,0,0,0,0,0,0,0,0,0,0,0,0,0,0,0,0,0,0],"sum_hessian":[9.49154E2,5.8761914E2,3.6153482E2,3.9107233E2,1.9654684E2,1.9348912E2,1.680457E2,3.483381E2,4.2734207E1,1.1105683E2,8.549002E1,5.1563766E1,1.4192535E2,1.1950043E2,4.8545277E1,2.8135745E2,6.6980644E1,3.0302555E1,1.2431652E1,3.7057858E1,7.399897E1,5.4906685E1,3.0583332E1,4.125234E1,1.0311429E1,1.1212772E2,2.9797623E1,1.0031746E2,1.918297E1,1.1150415E1,3.739486E1],"tree_param":{"num_deleted":"0","num_feature":"23","num_nodes":"31","size_leaf_vector":"1"}},{"base_weights":[-1.1610463E-2,-1.0838348E-1,2.1998025E-1,-2.4811146E-1,6.363046E-2,2.591495E-1,-3.4287933E-2,-3.9178413E-1,-8.189447E-2,1.5957108E-1,-1.7093697E-1,-1.6883941E-2,3.0492643E-1,-2.3721596E-2,8.324075E-3,2.431189E-2,-8.4637385E-3,1.4960888E-2,-3.6251775E-3,2.1870673E-2,-1.602961E-2,2.1245709E-2,4.9457904E-3],"categories":[],"categories_nodes":[],"categories_segments":[],"categories_sizes":[],"default_left":[0,0,0,0,0,0,0,0,0,0,0,0,0,0,0,0,0,0,0,0,0,0,0],"id":27,"left_children":[1,3,5,7,9,11,-1,13,15,17,19,-1,21,-1,-1,-1,-1,-1,-1,-1,-1,-1,-1],"loss_changes":[2.1716259E1,1.6473715E1,1.0261151E1,8.945868E0,6.936044E0,7.597273E0,0E0,9.435751E0,8.827869E0,7.133226E0,8.259572E0,0E0,6.222662E0,0E0,0E0,0E0,0E0,0E0,0E0,0E0,0E0,0E0,0E0],"parents":[2147483647,0,0,1,1,2,2,3,3,4,4,5,5,7,7,8,8,9,9,10,10,12,12],"right_children":[2,4,6,8,10,12,-1,14,16,18,20,-1,22,-1,-1,-1,-1,-1,-1,-1,-1,-1,-1],"split_conditions":[6E1,1E0,3.875E0,3E0,5.0443787E1,1.3157548E-1,-3.4287933E-2,3.3978897E-1,2.3240417E1,3.1E1,1.3E0,-1.6883941E-2,1.8411E4,-2.3721596E-2,8.324075E-3,2.431189E-2,-8.4637385E-3,1.4960888E-2,-3.6251775E-3,2.1870673E-2,-1.602961E-2,2.1245709E-2,4.9457904E-3],"split_indices":[1,5,15,19,14,13,0,13,14,11,15,0,9,0,0,0,0,0,0,0,0,0,0],"split_type":[0,0,0,0,0,0,0,0,0,0,0,0,0,0,0,0,0,0,0,0,0,0,0],"sum_hessian":[9.674025E2,6.829763E2,2.844262E2,3.769315E2,3.060448E2,2.7342603E2,1.1000194E1,2.0112593E2,1.7580556E2,2.1773491E2,8.8309906E1,1.8868034E1,2.5455798E2,1.7547696E2,2.5648981E1,2.2673986E1,1.5313158E2,1.3602557E2,8.170933E1,1.6923723E1,7.1386185E1,1.5988652E2,9.467146E1],"tree_param":{"num_deleted":"0","num_feature":"23","num_nodes":"23","size_leaf_vector":"1"}},{"base_weights":[2.203319E-2,9.539287E-2,-2.7188775E-1,-1.1816356E-2,2.4672385E-1,-6.720883E-1,-9.5695354E-2,-3.454242E-2,3.808837E-2,3.082949E-1,-1.6911123E-2,-3.9609006E-1,-5.1649667E-2,4.282849E-1,-2.2789215E-1,-1.8443596E-2,6.4910203E-4,1.3038685E-2,3.2764535E-2,-8.627615E-3,2.1748079E-2,-1.4174413E-3,-4.3292604E-2,5.4984284E-3,4.3827366E-2,-3.1739186E-2,-4.565782E-3],"categories":[],"categories_nodes":[],"categories_segments":[],"categories_sizes":[],"default_left":[0,0,0,0,0,0,0,0,0,0,0,0,0,0,0,0,0,0,0,0,0,0,0,0,0,0,0],"id":28,"left_children":[1,3,5,7,9,11,13,15,-1,17,19,21,-1,23,25,-1,-1,-1,-1,-1,-1,-1,-1,-1,-1,-1,-1],"loss_changes":[2.0676508E1,1.2488199E1,1.3358197E1,7.867657E0,5.2115326E0,5.2433796E0,9.377834E0,7.0059795E0,0E0,4.006975E0,4.3407636E0,5.8887825E0,0E0,3.692443E0,5.872273E0,0E0,0E0,0E0,0E0,0E0,0E0,0E0,0E0,0E0,0E0,0E0,0E0],"parents":[2147483647,0,0,1,1,2,2,3,3,4,4,5,5,6,6,7,7,9,9,10,10,11,11,13,13,14,14],"right_children":[2,4,6,8,10,12,14,16,-1,18,20,22,-1,24,26,-1,-1,-1,-1,-1,-1,-1,-1,-1,-1,-1,-1],"split_conditions":[7.17E2,2.3979102E-1,1.4947236E-1,4E0,3.9E1,8.6E4,4.557E3,6.749915E-2,3.808837E-2,4.3896773E-1,1.5E1,1.95E0,-5.1649667E-2,1.8E1,2E0,-1.8443596E-2,6.4910203E-4,1.3038685E-2,3.2764535E-2,-8.627615E-3,2.1748079E-2,-1.4174413E-3,-4.3292604E-2,5.4984284E-3,4.3827366E-2,-3.1739186E-2,-4.565782E-3],"split_indices":[4,13,13,5,22,2,9,13,0,13,7,15,0,10,20,0,0,0,0,0,0,0,0,0,0,0,0],"split_type":[0,0,0,0,0,0,0,0,0,0,0,0,0,0,0,0,0,0,0,0,0,0,0,0,0,0,0],"sum_hessian":[9.575509E2,7.67105E2,1.904459E2,4.4916135E2,3.1794363E2,5.718187E1,1.3326404E2,4.3739627E2,1.1765052E1,2.5791776E2,6.0025887E1,3.374801E1,2.343386E1,2.6244427E1,1.07019615E2,5.3857437E1,3.8353885E2,2.2864452E2,2.927323E1,4.527202E1,1.4753867E1,1.9643677E1,1.4104331E1,1.6205276E1,1.0039149E1,2.5793896E1,8.1225716E1],"tree_param":{"num_deleted":"0","num_feature":"23","num_nodes":"27","size_leaf_vector":"1"}},{"base_weights":[-1.2377779E-2,-1.02694675E-1,2.0001408E-1,-1.737692E-1,1.6899079E-1,3.1779146E-1,2.8336236E-2,-1.928116E-1,3.6215466E-2,3.1383812E-1,-1.2570542E-1,4.5042634E-1,-1.518292E-2,2.6091829E-2,-3.862732E-2,-8.238278E-3,-3.3280518E-2,1.824239E-4,2.5981579E-2,2.1056717E-2,-1.9927235E-2,2.9752886E-2,8.731022E-3,1.6774166E-2,-1.926487E-2,1.29643595E-2,-7.986737E-3],"categories":[],"categories_nodes":[],"categories_segments":[],"categories_sizes":[],"default_left":[0,0,0,0,0,0,0,0,0,0,0,0,0,0,0,0,0,0,0,0,0,0,0,0,0,0,0],"id":29,"left_children":[1,3,5,7,9,11,13,15,-1,17,19,21,23,-1,25,-1,-1,-1,-1,-1,-1,-1,-1,-1,-1,-1,-1],"loss_changes":[1.8220198E1,1.2910191E1,5.683318E0,9.141812E0,5.9715824E0,7.4498196E0,3.9246643E0,6.6946907E0,0E0,5.907506E0,7.049339E0,4.608536E0,6.4262958E0,0E0,3.7657175E0,0E0,0E0,0E0,0E0,0E0,0E0,0E0,0E0,0E0,0E0,0E0,0E0],"parents":[2147483647,0,0,1,1,2,2,3,3,4,4,5,5,6,6,7,7,9,9,10,10,11,11,12,12,14,14],"right_children":[2,4,6,8,10,12,14,16,-1,18,20,22,24,-1,26,-1,-1,-1,-1,-1,-1,-1,-1,-1,-1,-1,-1],"split_conditions":[6E1,2.554E1,9E0,4E0,3.4E1,4.611224E1,2.27E1,1.6E5,3.6215466E-2,2.933E1,2.902E1,1.917E4,1.046E1,2.6091829E-2,2.7184088E1,-8.238278E-3,-3.3280518E-2,1.824239E-4,2.5981579E-2,2.1056717E-2,-1.9927235E-2,2.9752886E-2,8.731022E-3,1.6774166E-2,-1.926487E-2,1.29643595E-2,-7.986737E-3],"split_indices":[1,3,12,5,22,14,10,2,0,3,3,9,3,0,14,0,0,0,0,0,0,0,0,0,0,0,0],"split_type":[0,0,0,0,0,0,0,0,0,0,0,0,0,0,0,0,0,0,0,0,0,0,0,0,0,0,0],"sum_hessian":[9.482673E2,6.660327E2,2.8223453E2,5.2850195E2,1.3753076E2,1.6654494E2,1.15689575E2,5.184066E2,1.00953665E1,9.239279E1,4.5137974E1,1.1906496E2,4.747998E1,1.3189275E1,1.02500305E2,4.908498E2,2.7556805E1,3.7449432E1,5.494336E1,1.4721758E1,3.0416214E1,7.710915E1,4.19558E1,2.4289856E1,2.3190126E1,2.9056639E1,7.3443665E1],"tree_param":{"num_deleted":"0","num_feature":"23","num_nodes":"27","size_leaf_vector":"1"}},{"base_weights":[-3.848827E-3,7.3937945E-2,-2.700952E-1,-1.2853781E-2,2.8353626E-1,-3.9321706E-1,7.863038E-2,5.2488786E-1,-4.102146E-2,3.2872027E-1,-1.385998E-2,-4.4744188E-1,1.5679318E-2,3.4268036E-1,-2.2175958E-2,7.0196884E-3,3.9634075E-2,-9.611084E-3,2.4161935E-3,-1.2860668E-2,1.8219518E-2,-1.597349E-2,-3.6795136E-2,4.08906E-2,5.1277694E-3],"categories":[],"categories_nodes":[],"categories_segments":[],"categories_sizes":[],"default_left":[0,0,0,0,0,0,0,0,0,0,0,0,0,0,0,0,0,0,0,0,0,0,0,0,0],"id":30,"left_children":[1,3,5,7,9,11,13,15,17,19,-1,21,-1,23,-1,-1,-1,-1,-1,-1,-1,-1,-1,-1,-1],"loss_changes":[1.9926775E1,1.3558363E1,9.406073E0,7.94788E0,5.6230583E0,6.33243E0,8.056724E0,2.4829464E0,6.7969756E0,4.336609E0,0E0,5.2065964E0,0E0,4.2528067E0,0E0,0E0,0E0,0E0,0E0,0E0,0E0,0E0,0E0,0E0,0E0],"parents":[2147483647,0,0,1,1,2,2,3,3,4,4,5,5,6,6,7,7,8,8,9,9,11,11,13,13],"right_children":[2,4,6,8,10,12,14,16,18,20,-1,22,-1,24,-1,-1,-1,-1,-1,-1,-1,-1,-1,-1,-1],"split_conditions":[7.12E2,6E1,3.0833012E-1,1.733E3,3.4444444E0,2.8975E4,2.1666667E0,3E0,5E0,1.24086685E-1,-1.385998E-2,8.6E4,1.5679318E-2,7.212E3,-2.2175958E-2,7.0196884E-3,3.9634075E-2,-9.611084E-3,2.4161935E-3,-1.2860668E-2,1.8219518E-2,-1.597349E-2,-3.6795136E-2,4.08906E-2,5.1277694E-3],"split_indices":[4,1,13,9,15,0,15,19,12,13,0,2,0,9,0,0,0,0,0,0,0,0,0,0,0],"split_type":[0,0,0,0,0,0,0,0,0,0,0,0,0,0,0,0,0,0,0,0,0,0,0,0,0],"sum_hessian":[9.5924927E2,7.4262885E2,2.1662039E2,5.254917E2,2.1713716E2,1.6021402E2,5.640637E1,2.5101479E1,5.003902E2,2.01493E2,1.5644161E1,1.4927066E2,1.0943372E1,3.7817406E1,1.858896E1,1.1084377E1,1.40171E1,1.8584692E2,3.1454327E2,1.1045189E1,1.9044781E2,1.0509895E2,4.4171696E1,1.1748535E1,2.6068872E1],"tree_param":{"num_deleted":"0","num_feature":"23","num_nodes":"25","size_leaf_vector":"1"}},{"base_weights":[-1.1180371E-2,-1.2060198E-1,2.448085E-1,-3.1826794E-1,-3.5397265E-2,1.9410744E-1,6.286455E-1,9.59201E-2,-4.1573802E-1,-2.075083E-1,9.014775E-2,2.2670582E-1,-2.1100044E-2,2.6180208E-1,5.9667375E-2,-1.7743764E-2,1.9123359E-2,-2.5737634E-2,-9.2448323E-4,3.1225404E-3,-2.1860123E-2,1.4449291E-2,4.273167E-4,9.7229555E-3,3.685823E-2,-0E0,2.5516039E-2],"categories":[],"categories_nodes":[],"categories_segments":[],"categories_sizes":[],"default_left":[0,0,0,0,0,0,0,0,0,0,0,0,0,0,0,0,0,0,0,0,0,0,0,0,0,0,0],"id":31,"left_children":[1,3,5,7,9,11,13,15,17,19,21,23,-1,25,-1,-1,-1,-1,-1,-1,-1,-1,-1,-1,-1,-1,-1],"loss_changes":[2.6799006E1,1.1250395E1,5.3686943E0,8.209217E0,1.0190326E1,5.1902075E0,6.323573E0,5.178194E0,6.3701267E0,1.2401789E1,4.3849897E0,3.757515E0,0E0,1.4219275E0,0E0,0E0,0E0,0E0,0E0,0E0,0E0,0E0,0E0,0E0,0E0,0E0,0E0],"parents":[2147483647,0,0,1,1,2,2,3,3,4,4,5,5,6,6,7,7,8,8,9,9,10,10,11,11,13,13],"right_children":[2,4,6,8,10,12,14,16,18,20,22,24,-1,26,-1,-1,-1,-1,-1,-1,-1,-1,-1,-1,-1,-1,-1],"split_conditions":[6E1,1E0,2E0,1.375E0,2E0,3.7E0,3E0,4.2E4,6.94E1,6.53E4,2.7184088E1,3.2222223E0,-2.1100044E-2,2.8E1,5.9667375E-2,-1.7743764E-2,1.9123359E-2,-2.5737634E-2,-9.2448323E-4,3.1225404E-3,-2.1860123E-2,1.4449291E-2,4.273167E-4,9.7229555E-3,3.685823E-2,-0E0,2.5516039E-2],"split_indices":[1,21,16,15,19,15,19,2,10,2,14,15,0,11,0,0,0,0,0,0,0,0,0,0,0,0,0],"split_type":[0,0,0,0,0,0,0,0,0,0,0,0,0,0,0,0,0,0,0,0,0,0,0,0,0,0,0],"sum_hessian":[9.551306E2,6.697624E2,2.8536826E2,2.0056464E2,4.6919772E2,2.5363219E2,3.1736057E1,3.8014843E1,1.6254979E2,1.9795825E2,2.7123947E2,2.4164125E2,1.1990929E1,2.0232958E1,1.1503099E1,1.4545092E1,2.346975E1,1.2967949E2,3.28703E1,9.11374E1,1.0682086E2,7.782835E1,1.9341113E2,2.2876646E2,1.2874791E1,1.0184803E1,1.0048155E1],"tree_param":{"num_deleted":"0","num_feature":"23","num_nodes":"27","size_leaf_vector":"1"}},{"base_weights":[6.573301E-3,-2.078215E-1,8.405608E-2,2.471836E-1,-3.0334616E-1,-6.689332E-2,2.0740029E-1,1.8240862E-2,4.0198766E-2,1.9273173E-2,-3.502253E-1,-2.006939E-2,-4.057763E-2,2.450937E-1,-3.959561E-1,-1.0188114E-2,1.8076826E-2,-2.2085006E-3,-2.3223234E-2,-5.2268384E-3,1.5087589E-2,9.160689E-3,2.6869897E-2,5.2930036E-4,-3.6740582E-2],"categories":[],"categories_nodes":[],"categories_segments":[],"categories_sizes":[],"default_left":[0,0,0,0,0,0,0,0,0,0,0,0,0,0,0,0,0,0,0,0,0,0,0,0,0],"id":32,"left_children":[1,3,5,7,9,11,13,15,-1,-1,17,19,-1,21,23,-1,-1,-1,-1,-1,-1,-1,-1,-1,-1],"loss_changes":[1.574216E1,1.1008741E1,1.3003477E1,5.511402E0,6.8619347E0,1.0841286E1,8.81809E0,2.5531738E0,0E0,0E0,6.774872E0,8.068046E0,0E0,6.383005E0,3.2229085E0,0E0,0E0,0E0,0E0,0E0,0E0,0E0,0E0,0E0,0E0],"parents":[2147483647,0,0,1,1,2,2,3,3,4,4,5,5,6,6,7,7,10,10,11,11,13,13,14,14],"right_children":[2,4,6,8,10,12,14,16,-1,-1,18,20,-1,22,24,-1,-1,-1,-1,-1,-1,-1,-1,-1,-1],"split_conditions":[1E0,1.375E0,2E0,1.2777778E0,1.733E3,1.75E5,7.42E2,9.025E3,4.0198766E-2,1.9273173E-2,6.77E2,2E0,-4.057763E-2,2.35E4,5.877E3,-1.0188114E-2,1.8076826E-2,-2.2085006E-3,-2.3223234E-2,-5.2268384E-3,1.5087589E-2,9.160689E-3,2.6869897E-2,5.2930036E-4,-3.6740582E-2],"split_indices":[21,15,19,15,9,2,4,9,0,0,4,5,0,0,9,0,0,0,0,0,0,0,0,0,0],"split_type":[0,0,0,0,0,0,0,0,0,0,0,0,0,0,0,0,0,0,0,0,0,0,0,0,0],"sum_hessian":[9.4633685E2,2.5042851E2,6.959083E2,4.2995747E1,2.0743277E2,3.1277695E2,3.8313138E2,3.1327003E1,1.1668741E1,1.2621757E1,1.94811E2,2.953657E2,1.7411257E1,3.6131833E2,2.1813074E1,1.9094252E1,1.2232752E1,5.356599E1,1.4124501E2,2.347401E2,6.0625584E1,2.998169E2,6.150143E1,1.0222398E1,1.1590677E1],"tree_param":{"num_deleted":"0","num_feature":"23","num_nodes":"25","size_leaf_vector":"1"}},{"base_weights":[-1.1843561E-2,-4.1716036E-1,2.5425121E-2,-4.591385E-2,-3.0297953E-1,-1.551895E-1,8.905301E-2,-4.256795E-1,1.2838091E-2,3.1038308E-1,-2.3823892E-1,1.3028526E-1,-2.4557337E-1,-2.7407123E-2,-2.0411909E-3,-4.070109E-3,3.1079222E-2,-1.6039552E-2,4.925269E-3,9.476533E-3,-2.3109233E-3,-3.0132165E-2,4.2163413E-3],"categories":[],"categories_nodes":[],"categories_segments":[],"categories_sizes":[],"default_left":[0,0,0,0,0,0,0,0,0,0,0,0,0,0,0,0,0,0,0,0,0,0,0],"id":33,"left_children":[1,3,5,-1,7,9,11,13,-1,15,17,19,21,-1,-1,-1,-1,-1,-1,-1,-1,-1,-1],"loss_changes":[1.4368816E1,4.183111E0,9.991822E0,0E0,4.72056E0,8.81647E0,8.899495E0,2.5293064E0,0E0,4.3119497E0,5.4130564E0,6.0238857E0,8.428183E0,0E0,0E0,0E0,0E0,0E0,0E0,0E0,0E0,0E0,0E0],"parents":[2147483647,0,0,1,1,2,2,4,4,5,5,6,6,7,7,9,9,10,10,11,11,12,12],"right_children":[2,4,6,-1,8,10,12,14,-1,16,18,20,22,-1,-1,-1,-1,-1,-1,-1,-1,-1,-1],"split_conditions":[7.142729E-2,2.05E1,1E0,-4.591385E-2,4.2E1,2.4525547E1,1.24E5,2E0,1.2838091E-2,2.1011793E1,6.94E1,1.8131E4,5.73E1,-2.7407123E-2,-2.0411909E-3,-4.070109E-3,3.1079222E-2,-1.6039552E-2,4.925269E-3,9.476533E-3,-2.3109233E-3,-3.0132165E-2,4.2163413E-3],"split_indices":[13,10,21,0,22,14,2,21,0,14,10,9,10,0,0,0,0,0,0,0,0,0,0],"split_type":[0,0,0,0,0,0,0,0,0,0,0,0,0,0,0,0,0,0,0,0,0,0,0],"sum_hessian":[9.4692755E2,7.9105286E1,8.6782227E2,1.3210215E1,6.589507E1,2.2529305E2,6.4252924E2,5.4390404E1,1.1504667E1,3.350781E1,1.9178523E2,5.7285254E2,6.967668E1,4.074199E1,1.3648414E1,1.5018031E1,1.8489779E1,1.5430261E2,3.7482613E1,4.2925964E2,1.4359291E2,3.3209026E1,3.646766E1],"tree_param":{"num_deleted":"0","num_feature":"23","num_nodes":"23","size_leaf_vector":"1"}},{"base_weights":[-2.3904315E-3,7.873317E-2,-1.8995608E-1,6.166274E-3,2.3703893E-1,-5.124925E-2,-6.084069E-1,2.6148435E-1,-6.9956854E-2,3.3469474E-1,-3.5483826E-2,-1.23233855E-1,4.195171E-1,-2.2680008E-1,-8.8537556E-1,3.5730734E-2,8.581272E-3,-1.0680924E-2,5.2567483E-3,1.2705174E-2,4.8656866E-2,1.6162667E-2,-9.257007E-3,1.2752372E-2,-1.1629938E-2,-4.605496E-3,4.078837E-2,-4.2665664E-2,7.1667335E-3,-5.3865846E-2,-2.9422907E-2],"categories":[],"categories_nodes":[],"categories_segments":[],"categories_sizes":[],"default_left":[0,0,0,0,0,0,0,0,0,0,0,0,0,0,0,0,0,0,0,0,0,0,0,0,0,0,0,0,0,0,0],"id":34,"left_children":[1,3,5,7,9,11,13,15,17,19,21,23,25,27,29,-1,-1,-1,-1,-1,-1,-1,-1,-1,-1,-1,-1,-1,-1,-1,-1],"loss_changes":[1.4320451E1,7.5116687E0,1.6404266E1,8.809848E0,5.5180893E0,7.301018E0,7.1400414E0,4.0306044E0,8.791415E0,7.443308E0,2.9944394E0,7.8043156E0,5.9316316E0,7.416414E0,1.4995155E0,0E0,0E0,0E0,0E0,0E0,0E0,0E0,0E0,0E0,0E0,0E0,0E0,0E0,0E0,0E0,0E0],"parents":[2147483647,0,0,1,1,2,2,3,3,4,4,5,5,6,6,7,7,8,8,9,9,10,10,11,11,12,12,13,13,14,14],"right_children":[2,4,6,8,10,12,14,16,18,20,22,24,26,28,30,-1,-1,-1,-1,-1,-1,-1,-1,-1,-1,-1,-1,-1,-1,-1,-1],"split_conditions":[4.825313E1,6E1,7.17E2,1.4090909E0,2.4615386E0,2.52E4,1.7777778E0,1.618E1,1E0,2.2941177E0,3E1,3.841E3,1E1,8.1E3,2.7E1,3.5730734E-2,8.581272E-3,-1.0680924E-2,5.2567483E-3,1.2705174E-2,4.8656866E-2,1.6162667E-2,-9.257007E-3,1.2752372E-2,-1.1629938E-2,-4.605496E-3,4.078837E-2,-4.2665664E-2,7.1667335E-3,-5.3865846E-2,-2.9422907E-2],"split_indices":[14,1,4,15,15,0,15,3,5,15,11,9,7,0,11,0,0,0,0,0,0,0,0,0,0,0,0,0,0,0,0],"split_type":[0,0,0,0,0,0,0,0,0,0,0,0,0,0,0,0,0,0,0,0,0,0,0,0,0,0,0,0,0,0,0],"sum_hessian":[9.384303E2,6.5512897E2,2.8330127E2,4.503572E2,2.0477177E2,2.137947E2,6.950658E1,1.031774E2,3.471798E2,1.5085368E2,5.3918102E1,1.8626384E2,2.7530848E1,3.0148272E1,3.9358307E1,1.5740002E1,8.743739E1,1.9089932E2,1.5628049E2,1.3532597E2,1.5527697E1,1.5333768E1,3.8584335E1,4.126977E1,1.4499408E2,1.2240912E1,1.5289934E1,1.0811987E1,1.9336285E1,2.2104074E1,1.7254234E1],"tree_param":{"num_deleted":"0","num_feature":"23","num_nodes":"31","size_leaf_vector":"1"}},{"base_weights":[-3.2168461E-3,5.4355245E-2,-2.9249507E-1,5.760519E-1,2.9335566E-2,1.3240671E-1,-4.362367E-1,3.8494748E-1,4.6531558E-2,-4.9732253E-2,2.0065753E-1,2.8902365E-2,-1.4612019E-1,2.1943968E-2,-5.7634723E-1,3.2728415E-2,7.1186735E-3,1.9785923E-4,-2.2248669E-2,3.9925557E-2,8.305869E-3,5.1023834E-3,-2.035444E-2,2.0002984E-2,-2.7041355E-2,-4.101503E-2,-1.7357072E-2],"categories":[],"categories_nodes":[],"categories_segments":[],"categories_sizes":[],"default_left":[0,0,0,0,0,0,0,0,0,0,0,0,0,0,0,0,0,0,0,0,0,0,0,0,0,0,0],"id":35,"left_children":[1,3,5,7,9,11,13,15,-1,17,19,-1,21,23,25,-1,-1,-1,-1,-1,-1,-1,-1,-1,-1,-1,-1],"loss_changes":[1.5982041E1,1.0350521E1,9.819643E0,1.9716082E0,1.0368683E1,5.200279E0,7.737339E0,1.4943645E0,0E0,1.1141206E1,4.7624645E0,0E0,1.7435708E0,6.3250375E0,4.7255554E0,0E0,0E0,0E0,0E0,0E0,0E0,0E0,0E0,0E0,0E0,0E0,0E0],"parents":[2147483647,0,0,1,1,2,2,3,3,4,4,5,5,6,6,7,7,9,9,10,10,12,12,13,13,14,14],"right_children":[2,4,6,8,10,12,14,16,-1,18,20,-1,22,24,26,-1,-1,-1,-1,-1,-1,-1,-1,-1,-1,-1,-1],"split_conditions":[7.22E2,1.733E3,2.9309694E1,6.05E4,2.758573E-1,2.779E1,1.4545455E0,1.68E1,4.6531558E-2,2.9375E0,3.841E3,2.8902365E-2,1.9230769E0,1.481E1,1.8181653E-1,3.2728415E-2,7.1186735E-3,1.9785923E-4,-2.2248669E-2,3.9925557E-2,8.305869E-3,5.1023834E-3,-2.035444E-2,2.0002984E-2,-2.7041355E-2,-4.101503E-2,-1.7357072E-2],"split_indices":[4,9,14,2,13,3,15,10,0,15,9,0,15,3,13,0,0,0,0,0,0,0,0,0,0,0,0],"split_type":[0,0,0,0,0,0,0,0,0,0,0,0,0,0,0,0,0,0,0,0,0,0,0,0,0,0,0],"sum_hessian":[9.56247E2,7.9791296E2,1.5833406E2,3.5324524E1,7.6258844E2,3.9867744E1,1.1846632E2,2.4491974E1,1.0832551E1,5.218653E2,2.4072313E2,1.5058283E1,2.4809462E1,2.7773335E1,9.069298E1,1.059972E1,1.3892254E1,4.6010214E2,6.1763165E1,1.1781657E1,2.2894148E2,1.2832338E1,1.1977123E1,1.6891235E1,1.0882099E1,4.247252E1,4.822046E1],"tree_param":{"num_deleted":"0","num_feature":"23","num_nodes":"27","size_leaf_vector":"1"}},{"base_weights":[1.5757425E-2,1.009601E-1,-1.6629933E-1,4.902286E-2,4.3665972E-1,-1.3250653E-1,-4.6837483E-2,-1.6523696E-1,1.16456896E-1,-1.7891424E-3,5.238048E-1,-2.3439477E-1,1.4768998E-1,-1.564662E-2,8.379446E-3,7.351873E-3,-1.6613716E-2,3.0451626E-2,2.8315856E-4,-2.0218844E-2,-2.1426368E-3,1.2980587E-2,-1.2573361E-2],"categories":[],"categories_nodes":[],"categories_segments":[],"categories_sizes":[],"default_left":[0,0,0,0,0,0,0,0,0,0,0,0,0,0,0,0,0,0,0,0,0,0,0],"id":36,"left_children":[1,3,5,7,9,11,-1,13,15,-1,17,19,21,-1,-1,-1,-1,-1,-1,-1,-1,-1,-1],"loss_changes":[1.4649241E1,1.115608E1,7.602257E0,8.090806E0,3.6034737E0,8.308587E0,0E0,6.6477294E0,5.8776426E0,0E0,3.1477985E0,6.871663E0,3.5308225E0,0E0,0E0,0E0,0E0,0E0,0E0,0E0,0E0,0E0,0E0],"parents":[2147483647,0,0,1,1,2,2,3,3,4,4,5,5,7,7,8,8,10,10,11,11,12,12],"right_children":[2,4,6,8,10,12,-1,14,16,-1,18,20,22,-1,-1,-1,-1,-1,-1,-1,-1,-1,-1],"split_conditions":[7.02E2,2.919E1,4.6E1,1E0,6.67E2,3.0624235E-1,-4.6837483E-2,6.94E1,3.5215E4,-1.7891424E-3,2.1E1,2E0,7.47E2,-1.564662E-2,8.379446E-3,7.351873E-3,-1.6613716E-2,3.0451626E-2,2.8315856E-4,-2.0218844E-2,-2.1426368E-3,1.2980587E-2,-1.2573361E-2],"split_indices":[4,3,22,21,4,13,0,10,9,0,7,19,4,0,0,0,0,0,0,0,0,0,0],"split_type":[0,0,0,0,0,0,0,0,0,0,0,0,0,0,0,0,0,0,0,0,0,0,0],"sum_hessian":[9.4273706E2,6.4286884E2,2.9986826E2,5.57985E2,8.488384E1,2.8851544E2,1.1352826E1,1.3287253E2,4.2511246E2,1.3132114E1,7.1751724E1,2.1196036E2,7.655508E1,9.228168E1,4.059085E1,3.988279E2,2.6284533E1,6.1300205E1,1.0451523E1,1.1143512E2,1.0052523E2,6.0258904E1,1.6296175E1],"tree_param":{"num_deleted":"0","num_feature":"23","num_nodes":"23","size_leaf_vector":"1"}},{"base_weights":[-0E0,-2.4243464E-1,6.838381E-2,3.5105538E-2,-4.128645E-1,1.6809173E-1,-1.5365016E-1,-4.4364844E-2,1.9044261E-2,-5.6654644E-1,-5.458816E-2,1.1695526E-1,5.020536E-1,-3.1565884E-1,1.4135091E-2,8.091543E-3,-8.619167E-3,-9.177435E-3,-3.4592796E-2,-1.5171229E-2,2.344433E-2,1.1670256E-2,-1.9186832E-3,3.180488E-2,8.854773E-3,-2.2367874E-2,1.3375992E-2,1.5052766E-2,-1.4663229E-2],"categories":[],"categories_nodes":[],"categories_segments":[],"categories_sizes":[],"default_left":[0,0,0,0,0,0,0,0,0,0,0,0,0,0,0,0,0,0,0,0,0,0,0,0,0,0,0,0,0],"id":37,"left_children":[1,3,5,7,9,11,13,15,-1,17,19,21,23,25,27,-1,-1,-1,-1,-1,-1,-1,-1,-1,-1,-1,-1,-1,-1],"loss_changes":[1.5558511E1,9.819851E0,1.6226105E1,2.228564E0,6.9677925E0,8.516158E0,6.2041693E0,1.747619E0,0E0,4.0780125E0,5.3096457E0,7.989793E0,2.706705E0,9.032859E0,9.9805565E0,0E0,0E0,0E0,0E0,0E0,0E0,0E0,0E0,0E0,0E0,0E0,0E0,0E0,0E0],"parents":[2147483647,0,0,1,1,2,2,3,3,4,4,5,5,6,6,7,7,9,9,10,10,11,11,12,12,13,13,14,14],"right_children":[2,4,6,8,10,12,14,16,-1,18,20,22,24,26,28,-1,-1,-1,-1,-1,-1,-1,-1,-1,-1,-1,-1,-1,-1],"split_conditions":[2E0,6.82E2,4.707483E1,4.2E1,2.397E1,1.9E1,2.2E1,1.56E0,1.9044261E-2,1.4615384E0,6E1,6.92E2,5.91E1,1.246729E2,3.5E1,8.091543E-3,-8.619167E-3,-9.177435E-3,-3.4592796E-2,-1.5171229E-2,2.344433E-2,1.1670256E-2,-1.9186832E-3,3.180488E-2,8.854773E-3,-2.2367874E-2,1.3375992E-2,1.5052766E-2,-1.4663229E-2],"split_indices":[20,4,14,22,3,7,22,15,0,15,1,4,10,14,22,0,0,0,0,0,0,0,0,0,0,0,0,0,0],"split_type":[0,0,0,0,0,0,0,0,0,0,0,0,0,0,0,0,0,0,0,0,0,0,0,0,0,0,0,0,0],"sum_hessian":[9.3620044E2,2.054978E2,7.3070264E2,7.8260345E1,1.2723746E2,5.047361E2,2.2596652E2,6.410876E1,1.415159E1,8.844061E1,3.879684E1,4.3914377E2,6.5592354E1,1.14817085E2,1.1114944E2,2.4156048E1,3.995271E1,2.2607008E1,6.583361E1,2.6711018E1,1.2085824E1,2.510632E2,1.8808055E2,4.5541477E1,2.0050879E1,9.399472E1,2.0822361E1,5.7668682E1,5.348076E1],"tree_param":{"num_deleted":"0","num_feature":"23","num_nodes":"29","size_leaf_vector":"1"}},{"base_weights":[1.5145926E-2,-6.1444733E-2,2.024614E-1,-3.1583812E-2,-5.974106E-1,3.1223294E-1,-6.977776E-2,4.4334373E-1,-5.9042595E-2,-4.2831123E-2,-5.8592684E-3,2.3667039E-1,4.383987E-2,2.186669E-1,-2.334697E-1,9.86437E-3,3.939634E-2,-7.6681106E-5,-1.5404807E-2,2.3409888E-2,2.5725642E-3,3.1851552E-2,-6.969592E-3,9.650486E-3,-1.8668868E-2],"categories":[],"categories_nodes":[],"categories_segments":[],"categories_sizes":[],"default_left":[0,0,0,0,0,0,0,0,0,0,0,0,0,0,0,0,0,0,0,0,0,0,0,0,0],"id":38,"left_children":[1,3,5,7,9,11,13,15,17,-1,-1,19,-1,21,23,-1,-1,-1,-1,-1,-1,-1,-1,-1,-1],"loss_changes":[1.3504841E1,1.0596552E1,8.2123375E0,8.245671E0,4.156394E0,8.007797E0,3.786333E0,2.6736188E0,8.557991E0,0E0,0E0,7.371581E0,0E0,4.471501E0,3.1423447E0,0E0,0E0,0E0,0E0,0E0,0E0,0E0,0E0,0E0,0E0],"parents":[2147483647,0,0,1,1,2,2,3,3,4,4,5,5,6,6,7,7,8,8,11,11,13,13,14,14],"right_children":[2,4,6,8,10,12,14,16,18,-1,-1,20,-1,22,24,-1,-1,-1,-1,-1,-1,-1,-1,-1,-1],"split_conditions":[6E1,7.57E2,2.4615386E0,1.936E3,1E0,2.2857144E0,1.675E4,1.164E3,2.5416667E0,-4.2831123E-2,-5.8592684E-3,3.1291979E1,4.383987E-2,3.1E1,6.77E2,9.86437E-3,3.939634E-2,-7.6681106E-5,-1.5404807E-2,2.3409888E-2,2.5725642E-3,3.1851552E-2,-6.969592E-3,9.650486E-3,-1.8668868E-2],"split_indices":[1,4,15,9,5,15,0,9,15,0,0,14,0,11,4,0,0,0,0,0,0,0,0,0,0],"split_type":[0,0,0,0,0,0,0,0,0,0,0,0,0,0,0,0,0,0,0,0,0,0,0,0,0],"sum_hessian":[9.384758E2,6.6621E2,2.7226578E2,6.3223126E2,3.397876E1,1.9418674E2,7.807904E1,3.3528812E1,5.9870245E2,2.1423138E1,1.2555624E1,1.7267223E2,2.1514502E1,2.7925043E1,5.0153996E1,2.0647676E1,1.2881135E1,4.875337E2,1.1116877E2,7.58236E1,9.684863E1,1.2647532E1,1.5277511E1,1.2118613E1,3.803538E1],"tree_param":{"num_deleted":"0","num_feature":"23","num_nodes":"25","size_leaf_vector":"1"}},{"base_weights":[7.5861006E-3,-7.6072544E-2,2.1285212E-1,-9.506146E-2,3.9807487E-2,4.684017E-1,1.1473672E-1,-2.1635492E-1,4.505614E-2,4.4386026E-2,2.951487E-1,5.1141554E-1,2.921605E-2,-2.7747616E-2,-6.8443553E-3,-3.9098464E-4,2.6669348E-2,2.6244003E-2,-0E0,7.310719E-3,4.4584308E-2,6.5559107E-3,-1.28269065E-2],"categories":[],"categories_nodes":[],"categories_segments":[],"categories_sizes":[],"default_left":[0,0,0,0,0,0,0,0,0,0,0,0,0,0,0,0,0,0,0,0,0,0,0],"id":39,"left_children":[1,3,5,7,-1,9,11,13,15,-1,17,19,21,-1,-1,-1,-1,-1,-1,-1,-1,-1,-1],"loss_changes":[1.5770635E1,1.0797977E1,6.5580454E0,1.0882422E1,0E0,4.9371433E0,6.506504E0,9.08202E0,7.7207727E0,0E0,3.5830317E0,4.5026865E0,4.701112E0,0E0,0E0,0E0,0E0,0E0,0E0,0E0,0E0,0E0,0E0],"parents":[2147483647,0,0,1,1,2,2,3,3,5,5,6,6,7,7,8,8,10,10,11,11,12,12],"right_children":[2,4,6,8,-1,10,12,14,16,-1,18,20,22,-1,-1,-1,-1,-1,-1,-1,-1,-1,-1],"split_conditions":[6E1,4E0,2.7184088E1,3E0,3.9807487E-2,2.3E1,6.72E2,8E0,2.28E4,4.4386026E-2,2E0,2.4E1,3.4E1,-2.7747616E-2,-6.8443553E-3,-3.9098464E-4,2.6669348E-2,2.6244003E-2,-0E0,7.310719E-3,4.4584308E-2,6.5559107E-3,-1.28269065E-2],"split_indices":[1,5,14,19,0,11,4,7,0,0,19,22,22,0,0,0,0,0,0,0,0,0,0],"split_type":[0,0,0,0,0,0,0,0,0,0,0,0,0,0,0,0,0,0,0,0,0,0,0],"sum_hessian":[9.156382E2,6.506146E2,2.650236E2,6.3773627E2,1.2878324E1,7.219434E1,1.9282925E2,3.4192065E2,2.9581564E2,1.9733335E1,5.2461006E1,3.310869E1,1.5972058E2,6.361734E1,2.783033E2,2.6761755E2,2.8198076E1,2.8909962E1,2.3551044E1,1.772937E1,1.5379317E1,1.1839213E2,4.132845E1],"tree_param":{"num_deleted":"0","num_feature":"23","num_nodes":"23","size_leaf_vector":"1"}},{"base_weights":[1.6183848E-2,3.929967E-2,-4.4145688E-1,7.346777E-2,-2.757545E-1,-0E0,-6.324577E-1,1.3964471E-2,2.1861055E-1,-5.173935E-1,5.844782E-2,-2.0110046E-2,-4.6845254E-2,-7.290896E-5,3.8108252E-2,-1.0232044E-2,1.3266389E-2,-1.3360761E-2,-5.4428052E-2,1.6906423E-2,-2.9232135E-2],"categories":[],"categories_nodes":[],"categories_segments":[],"categories_sizes":[],"default_left":[0,0,0,0,0,0,0,0,0,0,0,0,0,0,0,0,0,0,0,0,0],"id":40,"left_children":[1,3,5,7,9,-1,11,13,15,17,19,-1,-1,-1,-1,-1,-1,-1,-1,-1,-1],"loss_changes":[9.847373E0,9.573064E0,3.8259602E0,6.911866E0,7.096497E0,0E0,1.6876602E0,6.669877E0,4.6680784E0,6.82232E0,6.8645782E0,0E0,0E0,0E0,0E0,0E0,0E0,0E0,0E0,0E0,0E0],"parents":[2147483647,0,0,1,1,2,2,3,3,4,4,6,6,7,7,8,8,9,9,10,10],"right_children":[2,4,6,8,10,-1,12,14,16,18,20,-1,-1,-1,-1,-1,-1,-1,-1,-1,-1],"split_conditions":[7.57E2,3.090909E0,1.6190476E0,6E1,3.6E1,-0E0,5.2643505E1,4E0,1.4199772E-1,1.2619E4,8.9E4,-2.0110046E-2,-4.6845254E-2,-7.290896E-5,3.8108252E-2,-1.0232044E-2,1.3266389E-2,-1.3360761E-2,-5.4428052E-2,1.6906423E-2,-2.9232135E-2],"split_indices":[4,15,15,1,11,0,14,5,13,9,2,0,0,0,0,0,0,0,0,0,0],"split_type":[0,0,0,0,0,0,0,0,0,0,0,0,0,0,0,0,0,0,0,0,0],"sum_hessian":[9.320259E2,8.882902E2,4.3735657E1,8.0235754E2,8.593266E1,1.3375293E1,3.0360365E1,5.703286E2,2.3202895E2,4.9728466E1,3.6204197E1,1.8795033E1,1.1565332E1,5.596568E2,1.0671804E1,2.2516022E1,2.0951292E2,3.572389E1,1.4004577E1,2.5670004E1,1.0534195E1],"tree_param":{"num_deleted":"0","num_feature":"23","num_nodes":"21","size_leaf_vector":"1"}},{"base_weights":[1.9667933E-2,3.1862054E-2,-4.3074246E-2,-5.4160487E-2,1.3761961E-1,2.9981592E-1,-1.06840715E-1,6.503137E-2,4.1931215E-1,2.931053E-2,-4.8090355E-3,8.35967E-3,-1.0991799E-2,-3.9706687E-3,1.0700715E-2,1.1218024E-2,3.6714442E-2],"categories":[],"categories_nodes":[],"categories_segments":[],"categories_sizes":[],"default_left":[0,0,0,0,0,0,0,0,0,0,0,0,0,0,0,0,0],"id":41,"left_children":[1,3,-1,5,7,9,11,13,15,-1,-1,-1,-1,-1,-1,-1,-1],"loss_changes":[1.005215E1,8.466783E0,0E0,9.568811E0,8.460623E0,7.6362333E0,1.3884856E1,7.2052393E0,4.963131E0,0E0,0E0,0E0,0E0,0E0,0E0,0E0,0E0],"parents":[2147483647,0,0,1,1,3,3,4,4,5,5,6,6,7,7,8,8],"right_children":[2,4,-1,6,8,10,12,14,16,-1,-1,-1,-1,-1,-1,-1,-1],"split_conditions":[2.4E5,1E0,-4.3074246E-2,8.253748E0,4E0,1.9E1,2.7332602E1,2.2221728E-1,9.118006E0,2.931053E-2,-4.8090355E-3,8.35967E-3,-1.0991799E-2,-3.9706687E-3,1.0700715E-2,1.1218024E-2,3.6714442E-2],"split_indices":[2,5,0,18,20,11,14,13,18,0,0,0,0,0,0,0,0],"split_type":[0,0,0,0,0,0,0,0,0,0,0,0,0,0,0,0,0],"sum_hessian":[9.3969525E2,9.279311E2,1.1764151E1,5.1145724E2,4.1647382E2,6.540296E1,4.460543E2,3.3240384E2,8.406998E1,3.782161E1,2.7581354E1,1.2982947E2,3.162248E2,1.6866872E2,1.6373514E2,5.3182804E1,3.0887177E1],"tree_param":{"num_deleted":"0","num_feature":"23","num_nodes":"17","size_leaf_vector":"1"}},{"base_weights":[-7.5836326E-3,-1.2663086E-1,1.3755278E-1,5.4627556E-2,-2.3739325E-1,2.3324518E-1,-3.9484028E-2,-4.569021E-1,1.8481842E-1,-2.941661E-1,8.947962E-2,9.2022E-2,3.9634767E-1,-2.9736918E-1,1.5186505E-1,-3.9936252E-2,-4.4466667E-3,1.2593265E-2,-9.192841E-3,-2.0345084E-2,-6.393354E-3,2.7845655E-2,-7.6488303E-3,1.0614494E-3,3.446352E-2,-1.2170272E-2,2.3272753E-2,-6.7044008E-3,-4.0727846E-2,2.3007072E-3,3.436697E-2],"categories":[],"categories_nodes":[],"categories_segments":[],"categories_sizes":[],"default_left":[0,0,0,0,0,0,0,0,0,0,0,0,0,0,0,0,0,0,0,0,0,0,0,0,0,0,0,0,0,0,0],"id":42,"left_children":[1,3,5,7,9,11,13,15,17,19,21,23,25,27,29,-1,-1,-1,-1,-1,-1,-1,-1,-1,-1,-1,-1,-1,-1,-1,-1],"loss_changes":[1.6100834E1,1.0316994E1,7.1369686E0,1.3029793E1,5.957941E0,6.2002363E0,7.348697E0,4.8275642E0,3.9127069E0,4.99181E0,5.525094E0,6.166911E0,5.7062206E0,5.156411E0,4.726132E0,0E0,0E0,0E0,0E0,0E0,0E0,0E0,0E0,0E0,0E0,0E0,0E0,0E0,0E0,0E0,0E0],"parents":[2147483647,0,0,1,1,2,2,3,3,4,4,5,5,6,6,7,7,8,8,9,9,10,10,11,11,12,12,13,13,14,14],"right_children":[2,4,6,8,10,12,14,16,18,20,22,24,26,28,30,-1,-1,-1,-1,-1,-1,-1,-1,-1,-1,-1,-1,-1,-1,-1,-1],"split_conditions":[1E0,6.82E2,3E1,1.1764567E-1,3.749922E-1,1.739E1,1.5E1,1E1,2.2509E4,3E0,1.1532E4,2.52E4,1.1428572E0,1.009812E5,2E0,-3.9936252E-2,-4.4466667E-3,1.2593265E-2,-9.192841E-3,-2.0345084E-2,-6.393354E-3,2.7845655E-2,-7.6488303E-3,1.0614494E-3,3.446352E-2,-1.2170272E-2,2.3272753E-2,-6.7044008E-3,-4.0727846E-2,2.3007072E-3,3.436697E-2],"split_indices":[5,4,11,13,13,3,7,7,9,19,9,0,15,2,16,0,0,0,0,0,0,0,0,0,0,0,0,0,0,0,0],"split_type":[0,0,0,0,0,0,0,0,0,0,0,0,0,0,0,0,0,0,0,0,0,0,0,0,0,0,0,0,0,0,0],"sum_hessian":[9.299195E2,5.1132498E2,4.1859454E2,1.9379341E2,3.1753156E2,2.71883E2,1.4671155E2,3.8651436E1,1.5514198E2,2.7088837E2,4.6643196E1,1.4688184E2,1.2500115E2,6.247765E1,8.4233894E1,1.9289837E1,1.93616E1,1.3176704E2,2.3374935E1,1.6022334E2,1.1066501E2,1.5628451E1,3.1014746E1,1.3239212E2,1.44897175E1,1.1799511E1,1.1320164E2,4.858995E1,1.3887701E1,7.139369E1,1.2840203E1],"tree_param":{"num_deleted":"0","num_feature":"23","num_nodes":"31","size_leaf_vector":"1"}},{"base_weights":[-2.7187787E-2,-2.0676018E-1,2.126707E-2,7.866735E-3,-4.0843496E-1,-1.3031074E-1,1.15973E-1,-2.4331162E-2,9.080932E-2,-5.049969E-1,6.5429243E-3,3.2776353E-1,-1.8406221E-1,3.6363747E-2,9.529715E-2,2.2571437E-2,-2.1335613E-3,-3.8668856E-2,-1.6498892E-2,-3.4010404E-4,3.0200785E-2,-1.7848575E-2,-1.5681807E-3,-1.1308573E-4,1.1125994E-2],"categories":[],"categories_nodes":[],"categories_segments":[],"categories_sizes":[],"default_left":[0,0,0,0,0,0,0,0,0,0,0,0,0,0,0,0,0,0,0,0,0,0,0,0,0],"id":43,"left_children":[1,3,5,7,9,11,13,-1,15,17,-1,19,21,-1,23,-1,-1,-1,-1,-1,-1,-1,-1,-1,-1],"loss_changes":[8.082102E0,8.585493E0,1.0491163E1,3.9561477E0,5.4153576E0,6.958094E0,5.537834E0,0E0,4.0805397E0,3.715191E0,0E0,2.8038514E0,6.6056957E0,0E0,5.4429913E0,0E0,0E0,0E0,0E0,0E0,0E0,0E0,0E0,0E0,0E0],"parents":[2147483647,0,0,1,1,2,2,3,3,4,4,5,5,6,6,8,8,9,9,11,11,12,12,14,14],"right_children":[2,4,6,8,10,12,14,-1,16,18,-1,20,22,-1,24,-1,-1,-1,-1,-1,-1,-1,-1,-1,-1],"split_conditions":[2E0,6.2E4,1.573E1,2.85E1,3.043412E-1,1.2E0,3E0,-2.4331162E-2,4.58E1,5.18E1,6.5429243E-3,5.336E3,2.1E1,3.6363747E-2,3E0,2.2571437E-2,-2.1335613E-3,-3.8668856E-2,-1.6498892E-2,-3.4010404E-4,3.0200785E-2,-1.7848575E-2,-1.5681807E-3,-1.1308573E-4,1.1125994E-2],"split_indices":[20,2,3,10,13,15,22,0,10,10,0,9,22,0,19,0,0,0,0,0,0,0,0,0,0],"split_type":[0,0,0,0,0,0,0,0,0,0,0,0,0,0,0,0,0,0,0,0,0,0,0,0,0],"sum_hessian":[9.2521686E2,1.963491E2,7.2886774E2,9.534544E1,1.01003654E2,2.7972815E2,4.4913962E2,1.2823173E1,8.252227E1,8.58763E1,1.5127356E1,2.8646057E1,2.510821E2,1.3417789E1,4.357218E2,2.1852198E1,6.0670074E1,3.2322174E1,5.3554123E1,1.3233054E1,1.5413002E1,1.1681416E2,1.3426793E2,2.467225E2,1.8899931E2],"tree_param":{"num_deleted":"0","num_feature":"23","num_nodes":"25","size_leaf_vector":"1"}},{"base_weights":[1.6824685E-2,1.8551743E-1,-5.9527792E-2,3.3405636E-2,4.0186456E-1,2.0962183E-1,-1.3892044E-1,3.6828947E-1,-5.845743E-2,-1.2303277E-2,4.656636E-1,3.4186447E-1,-2.9669854E-1,-2.1517782E-1,2.1141623E-1,2.82141E-3,3.7626386E-2,-2.446319E-2,3.60037E-3,3.2939196E-2,1.2286374E-2,-3.0779514E-2,2.2350011E-2,6.2927813E-3,-3.4099963E-2,6.880641E-3,-1.4848127E-2,1.576735E-2,-2.0825043E-2],"categories":[],"categories_nodes":[],"categories_segments":[],"categories_sizes":[],"default_left":[0,0,0,0,0,0,0,0,0,0,0,0,0,0,0,0,0,0,0,0,0,0,0,0,0,0,0,0,0],"id":44,"left_children":[1,3,5,7,9,11,13,15,17,-1,19,21,23,25,27,-1,-1,-1,-1,-1,-1,-1,-1,-1,-1,-1,-1,-1,-1],"loss_changes":[1.18418455E1,9.373028E0,1.3527096E1,5.270409E0,5.0116177E0,9.752684E0,1.3108108E1,4.2962856E0,7.5932918E0,0E0,4.3284492E0,1.1820214E1,5.0608454E0,1.1663237E1,5.84264E0,0E0,0E0,0E0,0E0,0E0,0E0,0E0,0E0,0E0,0E0,0E0,0E0,0E0,0E0],"parents":[2147483647,0,0,1,1,2,2,3,3,4,4,5,5,6,6,7,7,8,8,10,10,11,11,12,12,13,13,14,14],"right_children":[2,4,6,8,10,12,14,16,18,-1,20,22,24,26,28,-1,-1,-1,-1,-1,-1,-1,-1,-1,-1,-1,-1,-1,-1],"split_conditions":[6.77E2,1.2E1,2.6532166E1,4.293E3,2.85E1,7.6E1,2E0,5.2E4,5.11E1,-1.2303277E-2,7E0,2.27E1,6.12E4,1.3478261E0,1.2535E5,2.82141E-3,3.7626386E-2,-2.446319E-2,3.60037E-3,3.2939196E-2,1.2286374E-2,-3.0779514E-2,2.2350011E-2,6.2927813E-3,-3.4099963E-2,6.880641E-3,-1.4848127E-2,1.576735E-2,-2.0825043E-2],"split_indices":[4,7,14,9,10,10,5,2,10,0,12,10,2,15,2,0,0,0,0,0,0,0,0,0,0,0,0,0,0],"split_type":[0,0,0,0,0,0,0,0,0,0,0,0,0,0,0,0,0,0,0,0,0,0,0,0,0,0,0,0,0],"sum_hessian":[9.165546E2,2.8554752E2,6.3100714E2,1.6861346E2,1.1693404E2,1.4307332E2,4.879338E2,3.5882915E1,1.3273055E2,1.0085317E1,1.06848724E2,1.1385782E2,2.9215494E1,4.0126266E2,8.667115E1,2.058363E1,1.5299286E1,3.0391493E1,1.0233906E2,5.558816E1,5.126056E1,1.0690925E1,1.0316689E2,1.4131494E1,1.5084002E1,7.515686E1,3.261058E2,7.492659E1,1.174456E1],"tree_param":{"num_deleted":"0","num_feature":"23","num_nodes":"29","size_leaf_vector":"1"}},{"base_weights":[-6.977769E-3,-1.741883E-1,5.4519333E-2,3.8113892E-2,-3.0372238E-1,6.814376E-2,-3.4838527E-2,1.8748511E-1,-4.0785298E-1,2.328332E-2,-3.6431825E-1,4.1689906E-2,4.2805678E-1,-1.9136695E-3,2.4113897E-2,-1.5639708E-3,-3.6179535E-2,-2.7020795E-2,-8.550118E-3,-1.270743E-2,4.666841E-3,4.9174484E-2,5.0776987E-3],"categories":[],"categories_nodes":[],"categories_segments":[],"categories_sizes":[],"default_left":[0,0,0,0,0,0,0,0,0,0,0,0,0,0,0,0,0,0,0,0,0,0,0],"id":45,"left_children":[1,3,5,7,9,11,-1,13,15,-1,17,19,21,-1,-1,-1,-1,-1,-1,-1,-1,-1,-1],"loss_changes":[9.545938E0,6.9058437E0,6.919509E0,6.39802E0,7.409355E0,6.2808027E0,0E0,4.867137E0,2.7601814E0,0E0,4.766876E0,9.514552E0,8.000635E0,0E0,0E0,0E0,0E0,0E0,0E0,0E0,0E0,0E0,0E0],"parents":[2147483647,0,0,1,1,2,2,3,3,4,4,5,5,7,7,8,8,10,10,11,11,12,12],"right_children":[2,4,6,8,10,12,-1,14,16,-1,18,20,22,-1,-1,-1,-1,-1,-1,-1,-1,-1,-1],"split_conditions":[1E0,3.2589718E1,1.2388398E1,3.5E1,9E0,3E0,-3.4838527E-2,2.3364936E-1,1.95E0,2.328332E-2,9.328E3,1.11104935E-1,1.399972E-1,-1.9136695E-3,2.4113897E-2,-1.5639708E-3,-3.6179535E-2,-2.7020795E-2,-8.550118E-3,-1.270743E-2,4.666841E-3,4.9174484E-2,5.0776987E-3],"split_indices":[21,14,17,22,11,5,0,13,15,0,9,13,13,0,0,0,0,0,0,0,0,0,0],"split_type":[0,0,0,0,0,0,0,0,0,0,0,0,0,0,0,0,0,0,0,0,0,0,0],"sum_hessian":[9.252382E2,2.4873145E2,6.765068E2,9.422821E1,1.5450323E2,6.654809E2,1.1025908E1,7.1188354E1,2.3039852E1,1.0671511E1,1.4383173E2,6.2121484E2,4.4266052E1,4.0615276E1,3.0573082E1,1.11533165E1,1.1886535E1,7.405755E1,6.977418E1,9.14609E1,5.2975397E2,1.552948E1,2.8736572E1],"tree_param":{"num_deleted":"0","num_feature":"23","num_nodes":"23","size_leaf_vector":"1"}},{"base_weights":[3.85908E-3,-2.186579E-1,6.537631E-2,1.7958133E-1,-3.1123528E-1,-2.3021722E-1,1.09774604E-1,-3.7219056E-3,2.2976277E-2,-3.8461602E-1,2.7477905E-2,-9.39685E-2,-3.830271E-2,7.257604E-2,3.9981776E-1,-1.655342E-2,-4.8470624E-2,-1.6000902E-2,1.2086529E-2,-5.6961174E-3,6.8280273E-3,4.2820323E-2,1.4594229E-2],"categories":[],"categories_nodes":[],"categories_segments":[],"categories_sizes":[],"default_left":[0,0,0,0,0,0,0,0,0,0,0,0,0,0,0,0,0,0,0,0,0,0,0],"id":46,"left_children":[1,3,5,7,9,11,13,-1,-1,15,-1,17,-1,19,21,-1,-1,-1,-1,-1,-1,-1,-1],"loss_changes":[1.2729756E1,7.4908295E0,9.589959E0,2.8034375E0,1.0548114E1,6.8010635E0,6.779192E0,0E0,0E0,4.3002396E0,0E0,5.94993E0,0E0,6.756379E0,3.1686735E0,0E0,0E0,0E0,0E0,0E0,0E0,0E0,0E0],"parents":[2147483647,0,0,1,1,2,2,3,3,4,4,5,5,6,6,9,9,11,11,13,13,14,14],"right_children":[2,4,6,8,10,12,14,-1,-1,16,-1,18,-1,20,22,-1,-1,-1,-1,-1,-1,-1,-1],"split_conditions":[2E0,6.72E2,8.99991E-2,6.67E2,4.1666088E-1,7.17E2,1.9E1,-3.7219056E-3,2.2976277E-2,7.47E2,2.7477905E-2,3E0,-3.830271E-2,1E0,5E0,-1.655342E-2,-4.8470624E-2,-1.6000902E-2,1.2086529E-2,-5.6961174E-3,6.8280273E-3,4.2820323E-2,1.4594229E-2],"split_indices":[20,4,13,4,13,4,7,0,0,4,0,19,0,21,22,0,0,0,0,0,0,0,0],"split_type":[0,0,0,0,0,0,0,0,0,0,0,0,0,0,0,0,0,0,0,0,0,0,0],"sum_hessian":[9.290267E2,2.0030688E2,7.287198E2,3.7400703E1,1.6290619E2,9.4320206E1,6.343996E2,1.9805874E1,1.759483E1,1.5072644E2,1.2179738E1,7.6285E1,1.8035204E1,5.6369916E2,7.070045E1,1.3967413E2,1.1052307E1,4.579359E1,3.049141E1,1.4339531E2,4.2030383E2,1.2014507E1,5.8685944E1],"tree_param":{"num_deleted":"0","num_feature":"23","num_nodes":"23","size_leaf_vector":"1"}},{"base_weights":[1.2048849E-2,-1.9051301E-1,8.6265296E-2,1.5678705E-1,-2.6956767E-1,1.6438246E-1,-6.012479E-2,-8.9073926E-2,2.9016644E-2,-0E0,-3.700304E-1,1.4333126E-1,3.447449E-2,1.4193736E-1,-2.597282E-1,9.083034E-3,-2.4823098E-2,-1.5544655E-2,1.7808175E-2,-2.5358567E-2,-4.5747417E-3,3.8415163E-3,1.5280572E-2,2.6259057E-3,3.4926657E-2,-2.4517497E-2,-1.4758211E-3],"categories":[],"categories_nodes":[],"categories_segments":[],"categories_sizes":[],"default_left":[0,0,0,0,0,0,0,0,0,0,0,0,0,0,0,0,0,0,0,0,0,0,0,0,0,0,0],"id":47,"left_children":[1,3,5,7,9,11,13,15,-1,17,19,21,-1,23,25,-1,-1,-1,-1,-1,-1,-1,-1,-1,-1,-1,-1],"loss_changes":[1.4031082E1,6.920455E0,7.8401546E0,4.9714375E0,5.5292864E0,4.754633E0,9.656625E0,3.4648569E0,0E0,6.367399E0,5.5787067E0,4.5876837E0,0E0,5.7998753E0,6.3280125E0,0E0,0E0,0E0,0E0,0E0,0E0,0E0,0E0,0E0,0E0,0E0,0E0],"parents":[2147483647,0,0,1,1,2,2,3,3,4,4,5,5,6,6,7,7,9,9,10,10,11,11,13,13,14,14],"right_children":[2,4,6,8,10,12,14,16,-1,18,20,22,-1,24,26,-1,-1,-1,-1,-1,-1,-1,-1,-1,-1,-1,-1],"split_conditions":[1E0,1.375E0,6.97E2,1.949E1,6.77E2,4.5E1,1.1097425E1,1.47E1,2.9016644E-2,2.3E1,2.233E1,6E1,3.447449E-2,2E0,2.1175E4,9.083034E-3,-2.4823098E-2,-1.5544655E-2,1.7808175E-2,-2.5358567E-2,-4.5747417E-3,3.8415163E-3,1.5280572E-2,2.6259057E-3,3.4926657E-2,-2.4517497E-2,-1.4758211E-3],"split_indices":[21,15,4,3,4,22,17,3,0,22,3,1,0,5,0,0,0,0,0,0,0,0,0,0,0,0,0],"split_type":[0,0,0,0,0,0,0,0,0,0,0,0,0,0,0,0,0,0,0,0,0,0,0,0,0,0,0],"sum_hessian":[9.319261E2,2.4910893E2,6.828172E2,4.577289E1,2.0333604E2,4.4559662E2,2.3722055E2,2.9311605E1,1.6461285E1,5.5509377E1,1.4782668E2,4.298285E2,1.5768141E1,1.17778824E2,1.1944173E2,1.7794605E1,1.1517E1,2.972414E1,2.5785236E1,9.826475E1,4.9561916E1,3.0637036E2,1.23458115E2,1.02573944E2,1.5204879E1,5.8886246E1,6.0555477E1],"tree_param":{"num_deleted":"0","num_feature":"23","num_nodes":"27","size_leaf_vector":"1"}},{"base_weights":[4.17302E-3,-5.5356015E-2,1.5085702E-1,6.360749E-2,-1.6565956E-1,-2.3155963E-1,1.9410375E-1,-2.2385392E-1,1.5898797E-1,-3.1049973E-1,-2.526004E-2,-3.1451974E-2,1.28427E-2,2.615586E-1,-1.2307819E-1,-2.292887E-2,-6.8318093E-4,1.1919771E-2,-6.906155E-3,-1.981429E-2,1.6401758E-2,9.299963E-3,-1.2906072E-2,3.746136E-2,9.140188E-3,-3.6641356E-2,1.0894005E-2],"categories":[],"categories_nodes":[],"categories_segments":[],"categories_sizes":[],"default_left":[0,0,0,0,0,0,0,0,0,0,0,0,0,0,0,0,0,0,0,0,0,0,0,0,0,0,0],"id":48,"left_children":[1,3,5,7,9,11,13,15,17,19,21,-1,-1,23,25,-1,-1,-1,-1,-1,-1,-1,-1,-1,-1,-1,-1],"loss_changes":[8.212543E0,8.783659E0,4.5341067E0,8.846071E0,7.0195723E0,5.6000094E0,5.2846136E0,3.9067726E0,5.7595754E0,9.474752E0,8.799699E0,0E0,0E0,7.546563E0,9.225499E0,0E0,0E0,0E0,0E0,0E0,0E0,0E0,0E0,0E0,0E0,0E0,0E0],"parents":[2147483647,0,0,1,1,2,2,3,3,4,4,5,5,6,6,7,7,8,8,9,9,10,10,13,13,14,14],"right_children":[2,4,6,8,10,12,14,16,18,20,22,-1,-1,24,26,-1,-1,-1,-1,-1,-1,-1,-1,-1,-1,-1,-1],"split_conditions":[6E1,1.7857143E0,1.4583273E-1,2E0,5.26E1,1.3813E4,2.8E0,2.1E1,3.5E1,3.3332777E-1,1.4003E4,-3.1451974E-2,1.28427E-2,8E0,3.1333334E0,-2.292887E-2,-6.8318093E-4,1.1919771E-2,-6.906155E-3,-1.981429E-2,1.6401758E-2,9.299963E-3,-1.2906072E-2,3.746136E-2,9.140188E-3,-3.6641356E-2,1.0894005E-2],"split_indices":[1,15,13,20,10,9,15,22,22,13,9,0,0,7,15,0,0,0,0,0,0,0,0,0,0,0,0],"split_type":[0,0,0,0,0,0,0,0,0,0,0,0,0,0,0,0,0,0,0,0,0,0,0,0,0,0,0],"sum_hessian":[9.3746564E2,6.6679846E2,2.7066718E2,3.205735E2,3.46225E2,2.6822037E1,2.4384512E2,7.927026E1,2.4130322E2,1.6947055E2,1.7675446E2,1.4741753E1,1.2080284E1,2.0148592E2,4.235921E1,3.666655E1,4.2603714E1,1.9083409E2,5.0469124E1,1.4987155E2,1.9598997E1,9.255626E1,8.419819E1,2.6654123E1,1.7483179E2,1.4884557E1,2.7474655E1],"tree_param":{"num_deleted":"0","num_feature":"23","num_nodes":"27","size_leaf_vector":"1"}},{"base_weights":[3.218977E-3,-1.8797518E-1,5.503841E-2,-2.4181637E-1,3.1770047E-2,-1.12384066E-1,1.0933152E-1,-1.989666E-1,-4.4204112E-2,-1.8363832E-1,2.5746716E-2,5.243176E-1,8.32337E-2,-5.9514428E-3,-3.0819518E-2,-5.0088144E-3,-2.9313777E-2,4.241539E-2,-8.184685E-3,4.2899183E-4,1.4653685E-2],"categories":[],"categories_nodes":[],"categories_segments":[],"categories_sizes":[],"default_left":[0,0,0,0,0,0,0,0,0,0,0,0,0,0,0,0,0,0,0,0,0],"id":49,"left_children":[1,3,5,7,-1,9,11,13,-1,15,-1,17,19,-1,-1,-1,-1,-1,-1,-1,-1],"loss_changes":[9.181169E0,8.868933E0,6.65213E0,4.840152E0,0E0,8.059199E0,5.8801055E0,5.7254887E0,0E0,5.301652E0,0E0,7.4025965E0,8.1335945E0,0E0,0E0,0E0,0E0,0E0,0E0,0E0,0E0],"parents":[2147483647,0,0,1,1,2,2,3,3,5,5,6,6,7,7,9,9,11,11,12,12],"right_children":[2,4,6,8,-1,10,12,14,-1,16,-1,18,20,-1,-1,-1,-1,-1,-1,-1,-1],"split_conditions":[2E0,4.285561E-1,1.3157548E-1,3.3333333E0,3.1770047E-2,3E0,5.8E0,1.9E1,-4.4204112E-2,1.1775E4,2.5746716E-2,2.1E1,1.5E1,-5.9514428E-3,-3.0819518E-2,-5.0088144E-3,-2.9313777E-2,4.241539E-2,-8.184685E-3,4.2899183E-4,1.4653685E-2],"split_indices":[20,13,13,15,0,5,3,7,0,0,0,11,7,0,0,0,0,0,0,0,0],"split_type":[0,0,0,0,0,0,0,0,0,0,0,0,0,0,0,0,0,0,0,0,0],"sum_hessian":[9.2597943E2,1.9648108E2,7.2949835E2,1.8519856E2,1.1282512E1,1.7792455E2,5.515738E2,1.7498936E2,1.0209202E1,1.6055455E2,1.7369993E1,3.127898E1,5.2029486E2,1.481441E2,2.6845268E1,1.3422783E2,2.632672E1,2.1205498E1,1.0073482E1,3.8488382E2,1.3541101E2],"tree_param":{"num_deleted":"0","num_feature":"23","num_nodes":"21","size_leaf_vector":"1"}},{"base_weights":[5.5802274E-3,2.0398455E-2,-3.20723E-2,-6.539216E-2,1.3310371E-1,-2.733673E-1,5.8984156E-3,-1.4942747E-1,2.119556E-1,5.669871E-4,-2.0024294E-2,1.3985879E-2,-4.7437395E-3,-2.1068566E-2,5.894381E-3,2.5848443E-2,6.9465847E-3],"categories":[],"categories_nodes":[],"categories_segments":[],"categories_sizes":[],"default_left":[0,0,0,0,0,0,0,0,0,0,0,0,0,0,0,0,0],"id":50,"left_children":[1,3,-1,5,7,9,11,13,15,-1,-1,-1,-1,-1,-1,-1,-1],"loss_changes":[8.833311E0,8.783377E0,0E0,7.6647577E0,8.787777E0,4.8156443E0,1.0646101E1,6.3322744E0,6.7171516E0,0E0,0E0,0E0,0E0,0E0,0E0,0E0,0E0],"parents":[2147483647,0,0,1,1,3,3,4,4,5,5,6,6,7,7,8,8],"right_children":[2,4,-1,6,8,10,12,14,16,-1,-1,-1,-1,-1,-1,-1,-1],"split_conditions":[7.77E2,3E0,-3.20723E-2,9E0,2E0,4.557E3,6.77E2,1.12E4,3.841E3,5.669871E-4,-2.0024294E-2,1.3985879E-2,-4.7437395E-3,-2.1068566E-2,5.894381E-3,2.5848443E-2,6.9465847E-3],"split_indices":[4,19,0,7,20,9,4,0,9,0,0,0,0,0,0,0,0],"split_type":[0,0,0,0,0,0,0,0,0,0,0,0,0,0,0,0,0],"sum_hessian":[9.2542206E2,9.058004E2,1.9621662E1,